{"labels":[{"id":"eby","fullname":"ebay","domains":["ebay.com"]},{"id":"goog","fullname":"Google","domains":["accounts.google.com"]},{"id":"negative"}],"network":{"layers":[{"out_depth":3,"out_sx":96,"out_sy":96,"layer_type":"input"},{"sx":5,"sy":5,"stride":1,"in_depth":3,"out_depth":18,"out_sx":96,"out_sy":96,"layer_type":"conv","l1_decay_mul":0,"l2_decay_mul":1,"pad":2,"filters":[{"sx":5,"sy":5,"depth":3,"w":{"0":-0.1633465941048445,"1":0.027302894085344493,"2":-0.10821717163557658,"3":-0.12557942953535695,"4":0.09797303258815902,"5":0.05619475965958337,"6":0.013253210858812425,"7":0.13742311952464797,"8":-0.0353789522821721,"9":-0.02190873946557071,"10":0.013063566776142389,"11":0.004818671131662691,"12":0.10380277261866785,"13":0.05682096034127095,"14":0.015048544908018218,"15":-0.1196991178059529,"16":-0.11302291454144425,"17":-0.2223288905219128,"18":-0.09489056698142152,"19":0.055492144448360516,"20":0.025795960117310248,"21":-0.2617769049670207,"22":0.07941976252599241,"23":-0.001376940745930704,"24":0.09904037471436496,"25":-0.04750526998283905,"26":0.0006771877448033706,"27":0.007124323264133301,"28":0.2069675292032431,"29":-0.028485793290721827,"30":0.11047589285960292,"31":0.014287006613381571,"32":-0.011169637675412557,"33":-0.09093720864442022,"34":0.04930127425674856,"35":-0.018378684112179897,"36":-0.04295668552572348,"37":0.02792051323862872,"38":-0.1468933315729497,"39":-0.12699960263633936,"40":0.09356292809463415,"41":-0.1428424030105592,"42":-0.15397515916698837,"43":-0.20965057271307203,"44":-0.07194638243552133,"45":-0.01703177949164675,"46":-0.03525312527939549,"47":-0.03028485690685875,"48":-0.13155478768215464,"49":-0.06082562856345902,"50":0.09390034963076872,"51":-0.06561059976057058,"52":-0.038605941874992215,"53":-0.08592280027887356,"54":0.2767596857179658,"55":-0.006189095939444911,"56":0.03107860327774704,"57":-0.056372349687742254,"58":-0.07993139364043332,"59":-0.11672978438656889,"60":-0.1582887986224677,"61":-0.044201176221724224,"62":0.26473695650770707,"63":0.18307225709518296,"64":0.10229145680995565,"65":-0.20176273901015948,"66":0.04408022221102349,"67":-0.07564073547959595,"68":-0.21433099780849196,"69":-0.03695305934023017,"70":0.12699583941874282,"71":0.009988931165744482,"72":0.020861869456762792,"73":-0.04817997164187632,"74":-0.17686461186838173}},{"sx":5,"sy":5,"depth":3,"w":{"0":0.058339308963781054,"1":-0.26088263125714584,"2":-0.1160843420992222,"3":-0.3159084381857264,"4":-0.042582056415167074,"5":-0.03833711263429981,"6":-0.011241152813880413,"7":-0.1829843064092358,"8":0.15685036526477147,"9":-0.09385595599840842,"10":-0.11664821025585369,"11":-0.04347839863776158,"12":-0.05927513648928893,"13":-0.391921369972306,"14":0.17000776287905045,"15":-0.26351297046026506,"16":-0.2733293959798289,"17":-0.14583640260440134,"18":-0.1410898158570713,"19":-0.08380436593929284,"20":-0.07748760147276039,"21":-0.0658187200103804,"22":-0.35048819887514254,"23":0.09477679894051497,"24":-0.11913568633472296,"25":-0.06028766736704404,"26":-0.0010508553931938202,"27":-0.007753582505174074,"28":-0.3277004826739117,"29":0.08073804821794216,"30":0.025147876915358927,"31":-0.22395564064638415,"32":0.009585870061524301,"33":-0.2677321926754781,"34":-0.3454779979163669,"35":0.16390793633379838,"36":-0.03988077342658703,"37":-0.08778628526102018,"38":-0.21174184397150567,"39":-0.07905109971723265,"40":-0.21482477989598003,"41":-0.10837851871766219,"42":-0.034478726783045484,"43":-0.24807569421988518,"44":-0.1367187848984966,"45":-0.19697133051480273,"46":-0.04317340830931648,"47":0.027497245075519764,"48":-0.0022054655641181183,"49":-0.29160040672633,"50":0.0265148776575446,"51":-0.017789230342345138,"52":-0.09634769629617698,"53":-0.2628838172263068,"54":-0.12116741695867063,"55":-0.13254957400449868,"56":-0.09148011775969549,"57":-0.24209521737522374,"58":-0.0917443981643114,"59":-0.04492754975423716,"60":-0.01678394725960019,"61":-0.012756025985656215,"62":-0.06694144688831828,"63":0.04384097497099702,"64":-0.08473898878058184,"65":0.14919982284758873,"66":0.04428029141365477,"67":-0.04004127752478136,"68":-0.047902814613867466,"69":0.013911533027957996,"70":0.012612938296789267,"71":0.16558836053814374,"72":0.10053860085703606,"73":0.2267137054232678,"74":0.10810253395626347}},{"sx":5,"sy":5,"depth":3,"w":{"0":-0.028077596323295963,"1":-0.0479995473101842,"2":0.042485720463188326,"3":0.10400695146440155,"4":-0.005665623998329893,"5":0.025150083518614176,"6":-0.10816959531624304,"7":0.011686348924396161,"8":-0.10352203270136792,"9":0.06082315085963676,"10":0.018839304535298293,"11":-0.19328288849775596,"12":0.0662928017005907,"13":0.13975015704640836,"14":0.19824450394344895,"15":-0.06959878824656326,"16":0.023186484017042208,"17":0.11410510561917295,"18":-0.09247595001665523,"19":-0.2816286195440299,"20":-0.05331672474336997,"21":-0.05156739411483619,"22":-0.09534201959316936,"23":-0.04458673431215545,"24":0.01598150182151707,"25":-0.02988537895041694,"26":0.10628933644316609,"27":-0.19304357617830342,"28":0.050084340580134216,"29":0.1740623657980357,"30":-0.0075544818394955695,"31":0.14887561724648826,"32":-0.01432310289846033,"33":0.03825616338857774,"34":-0.15968230092522198,"35":-0.1561525477496914,"36":-0.10405373024254033,"37":-0.18216018922292082,"38":-0.16091120578491627,"39":-0.10379396435431244,"40":-0.2940772980226577,"41":-0.11937099988647687,"42":-0.07040502479067583,"43":0.021459813320050765,"44":0.012737162808767738,"45":-0.029674870639642453,"46":0.048203976284465634,"47":-0.01460286866528344,"48":0.04458102441703981,"49":0.05831990322282471,"50":0.019419587852993275,"51":0.09605600376433976,"52":-0.03431578708384498,"53":-0.16176426641270503,"54":0.07298777894994991,"55":0.07426547273439858,"56":-0.012888797879579134,"57":-0.22160465723534073,"58":-0.10281247350463901,"59":-0.282494824790519,"60":0.14381229197855278,"61":0.14944363132181832,"62":0.05070903506337644,"63":-0.09181860540475455,"64":-0.12851390998477014,"65":0.05597246561747146,"66":-0.11172629020060346,"67":0.20365013742216415,"68":-0.10048680480221027,"69":0.07413356580473807,"70":-0.09315050069728723,"71":-0.03886608940170456,"72":-0.043008651884031794,"73":-0.133730991903234,"74":-0.014901711627685787}},{"sx":5,"sy":5,"depth":3,"w":{"0":-0.16441914727888096,"1":-0.052352723888149676,"2":-0.057775993458906896,"3":-0.04000551323349613,"4":0.1740305991774734,"5":0.009172418274550148,"6":-0.12064862506490849,"7":0.004489094600980893,"8":-0.06577448183831347,"9":-0.0885375270393679,"10":0.15036836769320377,"11":0.040418200323908415,"12":-0.07737135598636936,"13":-0.03640772113161423,"14":-0.17630205122850845,"15":0.021198735458547165,"16":-0.14775944183165096,"17":-0.07961009050432509,"18":0.020012896162666848,"19":-0.13163966745821812,"20":0.0018979375288375147,"21":-0.052288846661726764,"22":-0.1802809993678209,"23":-0.1334362702068428,"24":0.049174463525724646,"25":-0.083845539446149,"26":-0.14624764661810474,"27":-0.13218732843465486,"28":0.16154457831514657,"29":0.07591822483947219,"30":0.12888598215880365,"31":0.2045568140182623,"32":-0.028367053056735612,"33":0.11527018497223146,"34":0.18653490198198294,"35":-0.019569084156391664,"36":0.2591330338909456,"37":0.07960172547118734,"38":-0.004728064470601054,"39":-0.09713989485199143,"40":-0.17560532827908504,"41":0.04858255230630027,"42":-0.05555116579246509,"43":-0.06807369120897602,"44":-0.218951458822918,"45":-0.0028819031861443386,"46":0.20245796563492519,"47":-0.025482378699174957,"48":-0.13772109071693633,"49":-0.010793075863577728,"50":0.22489710886485273,"51":-0.06837830928442971,"52":0.08871747872379139,"53":0.021710019860913966,"54":-0.048401630381747114,"55":0.09133953895085377,"56":0.07854714305793406,"57":0.028643026685224646,"58":0.043400031816778234,"59":0.009329442371211189,"60":0.2083818316232878,"61":0.008844729107599427,"62":0.02050855903242036,"63":-0.1387537375352656,"64":-0.32625270759174246,"65":-0.18568423373677062,"66":-0.10419568785647677,"67":-0.08844247496788986,"68":-0.1698711871203821,"69":-0.2777781521055639,"70":0.1299403943267153,"71":-0.21714695742182624,"72":-0.012520512595721057,"73":-0.0758421539626331,"74":0.0952504775471838}},{"sx":5,"sy":5,"depth":3,"w":{"0":-0.003969883715670472,"1":0.09844927129476083,"2":-0.1214852739390207,"3":0.05430938678409989,"4":0.08194488826657287,"5":0.13238545758866196,"6":-0.10357696021897583,"7":0.07934766790770884,"8":-0.1853348965166907,"9":0.04328167460330892,"10":-0.0707772821816153,"11":-0.05651379717454429,"12":-0.15932493056334784,"13":0.023752516221369237,"14":-0.2367454228474161,"15":-0.11010163098336591,"16":0.21430205436596061,"17":-0.29425026791668674,"18":0.03188692118718286,"19":0.0032914433144651443,"20":-0.1571941468338658,"21":-0.17704972672530947,"22":0.08328539453374219,"23":0.076639779595624,"24":-0.07933883069552267,"25":0.045226420856213076,"26":0.11833446379103273,"27":-0.04663421255649245,"28":0.13558202833094216,"29":0.008336115260351362,"30":0.17589157514238982,"31":-0.2175679870331326,"32":0.027120620629722824,"33":-0.04379607981245832,"34":-0.19936982183034932,"35":0.049591128316920155,"36":-0.08190951287279993,"37":-0.19979660921172573,"38":-0.0843927983840696,"39":-0.16684087035391257,"40":-0.19528709211139222,"41":-0.25932142095116245,"42":-0.12835816642635842,"43":0.09348887142741696,"44":0.017921004234609378,"45":0.018307424181071782,"46":0.16055313249112318,"47":-0.0830226964899712,"48":-0.021040297087529563,"49":0.1346934325200201,"50":0.02691201514152112,"51":0.019260416064496085,"52":0.0992944514373766,"53":0.1663281185710959,"54":-0.010652195903708512,"55":-0.01863904427906608,"56":-0.08946401753067994,"57":-0.2509953722639029,"58":-0.12559422872778828,"59":-0.12688922640958827,"60":-0.27100272023721766,"61":0.17591759202797036,"62":-0.08650555240252494,"63":0.11837262701733701,"64":-0.08902991750899907,"65":-0.09196421938426377,"66":0.04488877856639769,"67":0.08800125377877686,"68":0.15621413506067552,"69":0.17776326373065113,"70":-0.039317100358085035,"71":-0.0771296463916828,"72":0.036060391166617474,"73":-0.21438459499939144,"74":0.2862558256047551}},{"sx":5,"sy":5,"depth":3,"w":{"0":0.04642218386123332,"1":-0.1687966593262334,"2":-0.053838385416018264,"3":0.00842212810219487,"4":-0.06110418569281285,"5":-0.16732633093740776,"6":0.0034368467305222047,"7":-0.05047724966247401,"8":0.2380754651583246,"9":-0.059851804238592626,"10":0.09107101233328058,"11":-0.04726764253645891,"12":0.030865791533434203,"13":-0.007071342284756939,"14":-0.3283505229164673,"15":0.10553455071788308,"16":-0.1363647785120386,"17":-0.20243633846608988,"18":-0.07452359702742893,"19":-0.21709379702349182,"20":-0.05599600302494433,"21":0.0013069846026164803,"22":-0.1943097092099437,"23":0.06938042698623204,"24":0.14642880036102063,"25":-0.09933631588143478,"26":0.12597741504235396,"27":0.16620659790309641,"28":0.01719184388542966,"29":-0.08474091791184882,"30":-0.04794009257198536,"31":0.049412816649238175,"32":0.05381009138563494,"33":-0.07299658046668689,"34":-0.079451235337091,"35":-0.0851975041227619,"36":-0.03043200841269323,"37":-0.2091869721296008,"38":-0.36234439374338573,"39":0.015242270564322547,"40":-0.049494709406671916,"41":-0.24920668666080012,"42":-0.084027171335216,"43":0.055848859290932695,"44":0.12394737509763988,"45":0.13477880717523105,"46":0.014017980710799674,"47":-0.11269438487164958,"48":-0.07123686194073675,"49":0.15833632010305523,"50":0.10982037117356694,"51":0.037436528158412447,"52":0.16934117087770392,"53":0.011231463680550951,"54":-0.003521609723370763,"55":0.13493661962178508,"56":-0.12267969740818851,"57":-0.0664688775318888,"58":-0.0695481804729648,"59":-0.06900866289274792,"60":-0.029327078118518604,"61":-0.08990674908766767,"62":-0.18169522930386853,"63":-0.10053146223364046,"64":-0.10667959313974777,"65":0.24189671908916774,"66":-0.013685167737158683,"67":0.06187357483458214,"68":0.19077396849962514,"69":0.04932544057103368,"70":0.06647578272166658,"71":-0.16024851767684317,"72":0.0875901837762915,"73":-0.22447357049905753,"74":0.1613417889805806}},{"sx":5,"sy":5,"depth":3,"w":{"0":0.07647098287692362,"1":-0.11412147604205444,"2":-0.10407820134821442,"3":0.02247041917861646,"4":0.0856933966821792,"5":-0.14849006908236934,"6":-0.07722057309805098,"7":-0.1312570183535942,"8":-0.29130370446459414,"9":0.2808749674413912,"10":-0.026421448473286525,"11":0.02327055766086868,"12":0.014365024284475269,"13":-0.09634801088772134,"14":-0.040620376613386036,"15":0.21522381119296088,"16":0.12362574334642372,"17":0.11779254218100793,"18":0.22239767121055148,"19":-0.24204817498334436,"20":-0.07778827551715062,"21":0.06020389363978181,"22":-0.22609143946921112,"23":-0.10787233479023677,"24":0.004031001700434733,"25":0.16348439153388505,"26":-0.15036005034968128,"27":-0.09970338107092303,"28":-0.18827613218329697,"29":-0.20470094072056286,"30":-0.05624159875810989,"31":-0.31531130291554976,"32":0.020411262199333282,"33":0.025970633679346957,"34":0.13568872300459844,"35":0.17957561231856542,"36":0.13306891109280924,"37":-0.14839505221366145,"38":0.006129665441378232,"39":-0.04715939989526923,"40":0.13929518018744425,"41":-0.16243115630186672,"42":0.05750788498185438,"43":0.11477940037398193,"44":0.007159062268934965,"45":-0.08103957679574282,"46":-0.2042012560056325,"47":-0.1878194025873057,"48":-0.10483575329334108,"49":0.05638526969514546,"50":-0.031011423215686104,"51":-0.07269648092070338,"52":0.08520953287475988,"53":-0.023192146238774577,"54":0.1221428985269905,"55":-0.0038566289801387054,"56":-0.027911310625501427,"57":0.06602713545361504,"58":-0.1555176094587226,"59":-0.023308298699415822,"60":0.161435477350634,"61":-0.09513542725954967,"62":0.1081999210211884,"63":0.2409584334065749,"64":0.0028884926478973897,"65":0.015206739255987239,"66":-0.03999384764432965,"67":-0.1786173644949145,"68":-0.04280964218963217,"69":-0.03857354686259914,"70":0.00021593491743888304,"71":-0.2731207578456877,"72":-0.11215184111599671,"73":-0.09440955715674797,"74":0.010662103803684465}},{"sx":5,"sy":5,"depth":3,"w":{"0":-0.24449990594662932,"1":-0.030687766296983946,"2":-0.17830761350641103,"3":0.18601860887559515,"4":-0.17359674978484563,"5":-0.07442552232444649,"6":0.29400511156136994,"7":0.18937424962488747,"8":0.12164384067210707,"9":-0.01332928353596351,"10":0.1575577592446121,"11":0.07654748828214074,"12":0.13271477721209723,"13":-0.07383883627025795,"14":-0.02338319190826091,"15":-0.028928110918079005,"16":-0.05225393335071366,"17":-0.40927974935137124,"18":-0.1638763766068888,"19":0.11266046031494051,"20":0.07789902651035502,"21":0.09628274604627687,"22":-0.21959501743954468,"23":-0.2001314190929306,"24":0.016938402679085085,"25":0.009486141945979902,"26":-0.05109571095510969,"27":-0.004215258731948764,"28":0.1004924811585917,"29":-0.10342845832427194,"30":-0.0662439873516243,"31":-0.12041084317064737,"32":0.05390758649384315,"33":0.2976871657012489,"34":-0.016196031298101096,"35":0.04658326362400723,"36":-0.13916703100688127,"37":-0.11462818822315433,"38":-0.14360716623513928,"39":-0.11906899019975023,"40":0.09776929599229983,"41":0.12580472512626953,"42":-0.10867017077342069,"43":-0.15957566421591457,"44":-0.1298099372783441,"45":0.20443277038281585,"46":0.09966166668658485,"47":-0.10236766105089254,"48":-0.02289842541698384,"49":0.12839662358426174,"50":0.0702587703164694,"51":-0.060934909818964496,"52":-0.20367399595798347,"53":0.02662858648331099,"54":0.16765287741992435,"55":-0.05496298630021497,"56":-0.18666472588187813,"57":-0.13100597730276933,"58":-0.2229799834247501,"59":-0.19018314933530017,"60":0.058795631833481486,"61":-0.06123735648736764,"62":0.18089604286086214,"63":0.062314268613858664,"64":0.041083843833540995,"65":-0.4138285983171121,"66":-0.17454414918329236,"67":-0.006614076929788955,"68":0.06422769050922289,"69":0.009979007368976991,"70":0.07520293653061429,"71":-0.049638237128507554,"72":-0.04522552459660527,"73":-0.2358863401238897,"74":-0.23305844429061542}},{"sx":5,"sy":5,"depth":3,"w":{"0":-0.1141919856143563,"1":0.014321315388111398,"2":-0.19127611932798183,"3":0.019516595290317306,"4":0.013289037224254755,"5":-0.12132182490003877,"6":0.31324185539058397,"7":-0.283549140854042,"8":-0.17947401089827741,"9":0.04604790433451809,"10":-0.21848496427305492,"11":0.0027632722008210904,"12":-0.0004225532858541858,"13":-0.042368135001660936,"14":0.0035799020343905376,"15":0.12814658488992609,"16":-0.18878011317676577,"17":0.12702889848726417,"18":0.09672991996731621,"19":-0.200459045751617,"20":-0.06304131751818928,"21":0.009746131987620631,"22":-0.3427386506031671,"23":0.023350775173979998,"24":-0.25778404700530033,"25":-0.1298869090564604,"26":0.1232360987769026,"27":-0.1701378483257272,"28":-0.14384123662065834,"29":-0.09560783439371495,"30":-0.013644766023969837,"31":-0.13429916859896293,"32":0.05450108243542521,"33":-0.023776578011140154,"34":-0.16895471408852875,"35":0.08326958199402378,"36":0.05500864036371308,"37":-0.11734968718024302,"38":-0.015957215870002758,"39":0.00506926950830739,"40":-0.22435390054729532,"41":-0.08318023618365616,"42":-0.06857193340619074,"43":-0.36419896952739017,"44":0.12201789806526872,"45":0.17316795815747044,"46":-0.22066884772393708,"47":0.06859425429081364,"48":-0.09221992077935007,"49":-0.3306200111049437,"50":-0.07927968601510027,"51":0.11757098056075312,"52":-0.19860849107636988,"53":-0.13304303279239377,"54":0.03650167614820008,"55":-0.21138511242742616,"56":-0.039650165878563966,"57":0.001108892210541809,"58":-0.3277918342713075,"59":-0.047871853904203725,"60":0.12650503980009653,"61":-0.2765625896584531,"62":-0.062130299820518244,"63":-0.08749984001681373,"64":-0.17498894090180545,"65":0.03995054503158243,"66":-0.18703640347657033,"67":-0.3457947633862176,"68":0.176852817535063,"69":-0.15198073175206872,"70":-0.204208843976073,"71":0.0022092642049776953,"72":0.038260037466225874,"73":-0.2296917979290583,"74":0.18007991719085029}},{"sx":5,"sy":5,"depth":3,"w":{"0":-0.030396467244573053,"1":0.06354312003918783,"2":0.02072799713047476,"3":-0.09975653986466297,"4":0.0810404639506488,"5":-0.008673678265832192,"6":-0.11762016757457847,"7":0.13176947615393433,"8":0.05083181912489648,"9":-0.04525737880778525,"10":0.14265962787052414,"11":0.08664195392130242,"12":-0.10237240800962748,"13":-0.0952163943163314,"14":0.08380873844847682,"15":0.08819616312232385,"16":0.1276832136670098,"17":-0.0599212785440399,"18":-0.047972453704593125,"19":-0.10353220931152948,"20":-0.29320079833737983,"21":-0.01985267296901004,"22":-0.2474730903398206,"23":-0.17637186919078562,"24":0.014343104485326025,"25":-0.20799628439126094,"26":-0.08048844017670095,"27":-0.19777248205024694,"28":0.03438637163672066,"29":0.11303191674634201,"30":-0.1395507857677795,"31":-0.01981601825384575,"32":0.030895003550918194,"33":0.2763671584586311,"34":0.033665244195943536,"35":0.13279121040932618,"36":-0.19638581109384942,"37":0.14148752051632196,"38":-0.17221825245058306,"39":0.013150571581802793,"40":0.02050401800872212,"41":0.17916483161009122,"42":-0.15327530226343572,"43":0.1423187477917826,"44":0.04222320018331842,"45":-0.03417263183913272,"46":0.06487354753624901,"47":-0.08158264426954978,"48":-0.035964082700321,"49":0.01261568914535097,"50":0.015788385005046205,"51":0.0730933408857898,"52":-0.016640897441996268,"53":0.08241466203832072,"54":0.11542062631042276,"55":0.16414265926868288,"56":-0.05187037315629364,"57":0.07047952243866248,"58":-0.06419899479964496,"59":0.036912823259599735,"60":-0.07354248461119045,"61":-0.057164772826768774,"62":-0.049029753435746,"63":-0.3056929978172881,"64":-0.12856858944747027,"65":-0.16252945226077475,"66":-0.17959562868784446,"67":-0.05880054083871886,"68":0.003011402969923544,"69":0.13221702624081966,"70":0.1736556035827681,"71":0.027897148682915828,"72":-0.14070234425968373,"73":-0.010802814623469178,"74":0.018919551559768856}},{"sx":5,"sy":5,"depth":3,"w":{"0":-0.06449202430524337,"1":0.050997726033469595,"2":-0.1254565895828719,"3":0.08071785555195703,"4":0.007100884297225989,"5":0.01450012359035533,"6":-0.04538223765342365,"7":0.13031006582892046,"8":-0.025438459878518112,"9":0.07385373687604177,"10":-0.19526363938922503,"11":0.059478465724562356,"12":0.1598808338152581,"13":-0.04734843841791441,"14":0.13070867489221685,"15":0.036469237006302044,"16":-0.13291593053750053,"17":-0.05893289275791102,"18":-0.0665507810545967,"19":-0.2846333578286131,"20":0.07567123520921847,"21":-0.14031421150613704,"22":-0.23415933929633778,"23":-0.11388145678516465,"24":-0.10502141773377066,"25":-0.21616763193429314,"26":0.18910162276574294,"27":-0.060418987270223164,"28":-0.192397041268994,"29":-0.016319103643064027,"30":-0.1469724458464221,"31":-0.1053862162994397,"32":0.019240925975764343,"33":-0.11356763879413291,"34":-0.35883667351238335,"35":0.20627673971883556,"36":0.163527774247328,"37":-0.3491582377506035,"38":0.055252582237777174,"39":-0.030031651360668796,"40":-0.04855036434649589,"41":-0.1577370887057735,"42":-0.019246899779009154,"43":-0.22885138850387182,"44":0.042445359176820414,"45":-0.09619611814564427,"46":-0.1403319994627894,"47":-0.0028052208992354745,"48":0.011720116004101867,"49":-0.4616922820618977,"50":0.12025204268244581,"51":-0.10907977844101839,"52":-0.3106156159042839,"53":0.047440823931592234,"54":-0.10205156530090802,"55":-0.44135347669387825,"56":0.09870661277713619,"57":-0.1935565458353853,"58":-0.35235407480089165,"59":-0.09361822106001395,"60":0.06150985493621175,"61":-0.13928465657243752,"62":-0.03120612763528051,"63":0.03562917612533866,"64":-0.0084620726356777,"65":-0.1402520085793695,"66":-0.30504602157972716,"67":-0.020298825735623558,"68":0.038802928203178134,"69":-0.008125149086799578,"70":-0.10775504131604033,"71":-0.1577078088983744,"72":0.027730856673295168,"73":-0.04968581590885621,"74":0.11652643753029052}},{"sx":5,"sy":5,"depth":3,"w":{"0":-0.037399208484697646,"1":0.039722519165191796,"2":0.06934462324616185,"3":-0.047409914661645076,"4":-0.07088938333879231,"5":0.028361673492232998,"6":-0.17532030478403746,"7":-0.33251423703537164,"8":-0.14816060623416902,"9":0.05734358181490218,"10":-0.12904224490863322,"11":0.13187192265506337,"12":0.1010301055737649,"13":0.025392533825822083,"14":0.12214760044242455,"15":0.030017687426303365,"16":-0.05207564306313028,"17":0.22600272838852087,"18":0.05070236956699924,"19":0.2239714250243945,"20":0.031137332529882378,"21":-0.17929633584968444,"22":-0.036958621952535325,"23":-0.04447995659896869,"24":-0.2424607030740464,"25":-0.04547050330103554,"26":0.0006805522555018062,"27":-0.13138590266470823,"28":0.1494572756909693,"29":0.1949865353889109,"30":-0.2188594596473591,"31":0.10455938002131383,"32":-0.11603155083523156,"33":-0.12146583249833533,"34":0.18784913030390432,"35":0.10834736015797641,"36":-0.09640617097494208,"37":0.14139330110590115,"38":-0.0023004940721278646,"39":0.058147890226592676,"40":-0.01239767326031007,"41":-0.18912048172285847,"42":0.11649223214754847,"43":0.1284550948349436,"44":-0.11921615647838707,"45":-0.16524816445642168,"46":0.1262372902716586,"47":-0.030384155286618687,"48":-0.24033774407694908,"49":0.09491410277131476,"50":-0.2829102622181446,"51":-0.07911244439452365,"52":-0.04445657746397562,"53":-0.0009823312049649152,"54":-0.17534389529712002,"55":-0.01336496857432761,"56":-0.037016021383551354,"57":0.18731189737202847,"58":0.10217244607522381,"59":-0.15331812929855904,"60":-0.26783060871014164,"61":-0.05088400195581413,"62":0.05644732059631687,"63":-0.10759202184597913,"64":0.11325394751681232,"65":0.00815223665186366,"66":-0.041763850728906954,"67":-0.08320204242444662,"68":0.021771081264568507,"69":-0.09860692017976411,"70":0.25311866421969215,"71":0.07020022268005534,"72":-0.17005576418449486,"73":0.06508120079644482,"74":0.02022729948981318}},{"sx":5,"sy":5,"depth":3,"w":{"0":-0.12765346869342964,"1":-0.13775905314402917,"2":0.019585109806390964,"3":-0.046413501702823524,"4":-0.1807123102418969,"5":0.12643744402131754,"6":0.13550504069703104,"7":0.03780215612298678,"8":-0.10766996085695543,"9":0.12589635074203104,"10":0.008946719597217281,"11":-0.010978779644391052,"12":-0.19388593272316915,"13":0.09801739430026693,"14":0.037472274324500766,"15":-0.15567732244743573,"16":-0.18932947809547515,"17":-0.11295932768322198,"18":-0.12887077861764648,"19":-0.06474088520609977,"20":-0.03396205381872755,"21":0.11611378062255759,"22":-0.20026776051768708,"23":0.011329859352226686,"24":0.156346299028194,"25":-0.07093032370090327,"26":0.10741411829260164,"27":0.08007456534215796,"28":0.08103220931741473,"29":0.04030611241325196,"30":0.20055784128464688,"31":0.1381710954617271,"32":0.17024170245840733,"33":0.05758316655727829,"34":0.08619952286912254,"35":-0.016964702500083202,"36":-0.08347132365064149,"37":0.17585147152795158,"38":-0.18789770675272513,"39":0.08327429973970678,"40":-0.03504381542901906,"41":-0.00841605953566847,"42":0.11489717280237745,"43":-0.15606916665853826,"44":-0.12934384254234918,"45":-0.018867386165031377,"46":0.025629023433920272,"47":-0.13665042967192118,"48":-0.09603907550353277,"49":0.15114889613341428,"50":-0.09344032733977832,"51":0.18403743766649475,"52":0.051664163224048876,"53":-0.2079557685380825,"54":-0.06292750091346078,"55":-0.23716998634187447,"56":0.00973843038433507,"57":-0.061765526135955935,"58":-0.012987913737083863,"59":0.05140338112504627,"60":0.011068116853094839,"61":-0.193286498492942,"62":0.12115370240619981,"63":-0.12173695205081976,"64":-0.16917641752505505,"65":-0.0742175118229242,"66":-0.15639694477789845,"67":0.10873230885133843,"68":-0.0263599188696744,"69":-0.03723929591683986,"70":0.13228239688577811,"71":-0.08625452136659166,"72":-0.3556927592816101,"73":0.04315599364630475,"74":-0.19073485720618005}},{"sx":5,"sy":5,"depth":3,"w":{"0":-0.1463749590076974,"1":-0.049097474360757114,"2":0.06259124491704002,"3":-0.0428629980422555,"4":-0.03049295463591614,"5":-0.131877023266843,"6":0.05596633972065973,"7":0.19761463211409983,"8":-0.0689422660925575,"9":-0.0730994135799557,"10":-0.11793770552742186,"11":-0.1173285674875098,"12":0.05539809160356924,"13":-0.04871994519551285,"14":0.11370924641539053,"15":0.031249418535718675,"16":-0.002837422770174002,"17":-0.10678673168927974,"18":-0.03896814983397671,"19":0.0072345466360387274,"20":-0.26687725573284593,"21":-0.028261752841499035,"22":0.018667843537625756,"23":-0.08429127940436452,"24":-0.06566847357488097,"25":-0.11211873129624154,"26":-0.279247240368557,"27":0.06634718381944288,"28":-0.014936974905987738,"29":-0.16472249223288354,"30":-0.07050529178605633,"31":0.05731864318019102,"32":0.01874464619970598,"33":-0.13365417385702347,"34":-0.20111399941530847,"35":-0.1492716354753814,"36":0.044413247428313825,"37":0.01921388969824852,"38":-0.0964784421776803,"39":-0.06601270015917786,"40":0.1139931024645133,"41":0.06201269967100787,"42":0.0035200765792358863,"43":0.018444609804474713,"44":0.21524250927293734,"45":0.06791336165713426,"46":0.20604141721611807,"47":-0.07682037142652934,"48":0.06601332104703754,"49":0.001100748339780149,"50":0.15081203248224648,"51":0.1281512739767661,"52":0.031010820555987577,"53":-0.023238728297172058,"54":0.022643764341404193,"55":-0.017541809822130428,"56":-0.03926201547448133,"57":-0.10479692991880062,"58":-0.11755867650604765,"59":0.06034956241814258,"60":-0.016613605244847965,"61":0.03725003307588949,"62":0.08000222220200295,"63":-0.06668862012331758,"64":0.12387590240357639,"65":-0.08198566415946405,"66":-0.019673953592830758,"67":-0.020398772369458425,"68":0.0004214169382500371,"69":-0.3872707162680015,"70":-0.019822808528971628,"71":0.08300769905497367,"72":0.11156198725936886,"73":-0.04620617097671017,"74":0.05606493449951889}},{"sx":5,"sy":5,"depth":3,"w":{"0":0.3021029862127586,"1":0.020629571072102827,"2":-0.060207981390374136,"3":-0.18935029729409805,"4":0.17305659985745192,"5":0.17508967950016172,"6":0.08825422642936333,"7":0.07605436640310609,"8":0.20751952001382407,"9":-0.02634196941979335,"10":0.11465494895427443,"11":-0.06788874934440937,"12":-0.10329189060919745,"13":-0.07409461843657572,"14":0.06946747363479955,"15":0.03700725726952682,"16":-0.05224975436071694,"17":0.04400828209381774,"18":-0.11794863763975079,"19":0.05833421086031639,"20":0.2048305606203801,"21":-0.08812630205624825,"22":0.024951563582435894,"23":-0.0322613087171441,"24":-0.0823434065884196,"25":0.03065593517994112,"26":-0.03251979705288402,"27":-0.00036858013887501335,"28":-0.04916070179105302,"29":-0.07578127915298426,"30":0.0908450168794364,"31":0.022622028619002546,"32":0.09978282603633508,"33":-0.07160300208210532,"34":0.05480615895808506,"35":-0.027152280395372694,"36":-0.024629671855237973,"37":0.036917608270751065,"38":-0.032158834881610456,"39":-0.12256515142185816,"40":-0.07060103240272342,"41":-0.013421773829226512,"42":0.02019408867325463,"43":-0.03014212572186111,"44":0.0038331028256090487,"45":0.062352539680374124,"46":0.16831967310408502,"47":0.00917167103106585,"48":0.05227606309363674,"49":0.034853843217188596,"50":0.002424660629747131,"51":-0.09046496219668583,"52":0.011583613678580237,"53":-0.02592172155040036,"54":0.046192533760276426,"55":0.05145351607349418,"56":-0.09457187681651724,"57":-0.01168987577745134,"58":-0.049118162700946315,"59":-0.16759787274399607,"60":0.02292653527041614,"61":0.022559954629974323,"62":-0.17006171796873445,"63":-0.058779595577349936,"64":-0.07028587681123025,"65":-0.11403021486016364,"66":-0.1001515294513584,"67":-0.12889436808910995,"68":0.021659441361780725,"69":-0.054575916636354437,"70":-0.13100929357570065,"71":-0.06738020702375022,"72":-0.08842113744107294,"73":0.056977838544226826,"74":-0.024729557933313294}},{"sx":5,"sy":5,"depth":3,"w":{"0":-0.047557310448716125,"1":-0.015451803453596305,"2":-0.19872661809300715,"3":0.07252070568418427,"4":0.17915230564128282,"5":0.23256115889031462,"6":-0.1319967128312425,"7":0.15401998152014929,"8":0.05781136621829241,"9":0.010948786534430736,"10":0.0038585356252168555,"11":0.1721314758123741,"12":-0.0764345033732682,"13":0.12055404109347051,"14":-0.05751001661396035,"15":-0.27199836626913937,"16":-0.07361053951738743,"17":-0.1831343048532779,"18":-0.2187393421403758,"19":0.1398875876588693,"20":0.037130938312204737,"21":-0.07720990116481022,"22":0.20620517177035963,"23":0.08793955072094997,"24":0.09751651930134086,"25":0.04779948838355832,"26":-0.0652090174235986,"27":0.186882925809103,"28":-0.0214207759257347,"29":0.01619034930502269,"30":-0.2608393668401142,"31":-0.0972993538254981,"32":0.13305088275986343,"33":-0.06029836890588176,"34":-0.050661146531033464,"35":-0.06544359186112843,"36":-0.22904976644835484,"37":0.011784383171836854,"38":-0.0658776690685222,"39":-0.209734886892167,"40":-0.03190661016946847,"41":0.2084171940289773,"42":-0.23175928735605208,"43":-0.11503105207497157,"44":0.01597411396688241,"45":0.2571365068743234,"46":0.07588225233413454,"47":0.08956285330722023,"48":0.13494181116045026,"49":0.10797767053034794,"50":-0.19575887063155714,"51":0.000016832124016782897,"52":0.18344461030271564,"53":-0.01364964356283368,"54":0.009677938895454763,"55":-0.011623943575154594,"56":-0.10769622471804756,"57":-0.12060113808684916,"58":-0.0920499252836204,"59":-0.012633879523110842,"60":-0.13498113720267213,"61":-0.12605453462352384,"62":0.009086953381943833,"63":0.19290626499278488,"64":0.06664292993873304,"65":-0.011325117882875022,"66":-0.06761061613045427,"67":-0.024390855267526813,"68":-0.10047935565742915,"69":0.10390452581967838,"70":0.06670211882753202,"71":0.044650679449492824,"72":-0.060160526166582386,"73":0.15771305923171608,"74":-0.1504208744088356}},{"sx":5,"sy":5,"depth":3,"w":{"0":0.18045276744619362,"1":-0.03290234632138946,"2":-0.14345265188272863,"3":0.10752904060329209,"4":-0.09148677977291605,"5":-0.2609386185140878,"6":0.2733789339193333,"7":0.08492942501184142,"8":-0.16221705308862355,"9":-0.02483936648764574,"10":-0.35021375093165424,"11":-0.20279772018981584,"12":0.2996991721458106,"13":-0.17281380988567696,"14":0.08972215558722503,"15":0.2987278257488096,"16":0.015498382105363952,"17":-0.1780192705044121,"18":0.0623681981418702,"19":-0.04335709805926854,"20":0.1448629612977734,"21":0.029138295722167668,"22":0.04162694460318809,"23":-0.04632447551125244,"24":-0.1042105069362494,"25":-0.13340409427122335,"26":-0.16064730049253892,"27":-0.08888489644650749,"28":-0.15765354403894555,"29":0.14594765956481134,"30":0.07123528690989307,"31":-0.09177117549136235,"32":-0.1957141970869094,"33":-0.09367554194350255,"34":-0.13964854849311137,"35":-0.14402658958262146,"36":0.20732656250513115,"37":-0.1370893218890836,"38":-0.11362265468631728,"39":0.16906899484735793,"40":-0.19956265961846237,"41":-0.09792256800604296,"42":0.21007070871532582,"43":-0.030553514153545902,"44":-0.046193544203802755,"45":0.10505996273807378,"46":0.06999034805889225,"47":-0.045711929152797405,"48":-0.24688893343057003,"49":-0.29732536231053613,"50":-0.12468207384148496,"51":0.14224964655212857,"52":-0.2560605954467768,"53":-0.18483092468114093,"54":-0.18409609317236367,"55":-0.09748278661778119,"56":-0.023031990207094323,"57":0.07112176530633427,"58":-0.29474704651842243,"59":0.046581268884392714,"60":0.2263390898091034,"61":-0.148064214694461,"62":0.01850230572040075,"63":-0.1852596760213647,"64":-0.05377833859895464,"65":0.1848557984981902,"66":0.2005637521400319,"67":0.07385909747747985,"68":-0.1719338204075906,"69":0.25906382118375737,"70":0.00667624272875468,"71":-0.15966798096534565,"72":0.0937949181852815,"73":-0.04107608018941941,"74":-0.0011800745222440186}},{"sx":5,"sy":5,"depth":3,"w":{"0":-0.04620470618666793,"1":-0.3264710090721992,"2":-0.09441286713837627,"3":0.09073747108432553,"4":0.05990273875337173,"5":-0.055075941358580766,"6":-0.14221842498956835,"7":-0.1266698971540238,"8":-0.0901278758711401,"9":-0.05865310025324758,"10":-0.11889693339337164,"11":-0.1941058491741618,"12":0.032280787854945286,"13":0.01974211601101409,"14":-0.2388054518395971,"15":0.12047232415027043,"16":-0.11646314840168175,"17":-0.16738060376098232,"18":0.007741831698430379,"19":0.02111614090861384,"20":-0.23059589650666965,"21":0.12427270670706357,"22":-0.04405910247933541,"23":-0.2505490830647186,"24":-0.006706095369618644,"25":0.09933985028605233,"26":-0.06995925672043464,"27":0.02341429102702424,"28":-0.23889709843773158,"29":-0.17746858911574565,"30":0.0921028726183419,"31":-0.17951905854857111,"32":-0.3028750014991986,"33":-0.054997973542466334,"34":-0.14239525298519456,"35":0.10409248502888468,"36":0.16865599414303667,"37":-0.08691962723045044,"38":-0.04219465490294984,"39":0.0049345837241906165,"40":-0.0648286697616238,"41":-0.0634176302285986,"42":0.24250447497049202,"43":-0.007208451266090162,"44":0.005006850179487299,"45":0.01465948090385578,"46":0.001355996717429691,"47":-0.12656080335223663,"48":-0.06310289083641285,"49":0.050587604208334885,"50":-0.16878204747269707,"51":-0.025725934846613816,"52":0.011339238312209003,"53":-0.23806827855113785,"54":0.07672082353484458,"55":0.11861621001026543,"56":-0.17745043986933723,"57":0.0627031473192273,"58":-0.18553830666489096,"59":0.04544691428671719,"60":-0.025299069797405056,"61":-0.14318447521097258,"62":-0.026970695547054023,"63":-0.11477095283806779,"64":-0.10929733950999508,"65":-0.16535321465178213,"66":-0.16585517644102435,"67":0.01959588415339258,"68":-0.015795122178428635,"69":0.10050014834365513,"70":0.10906648110751414,"71":-0.12896254292475998,"72":0.09078617920241228,"73":0.07773546565094909,"74":0.09847736578441665}}],"biases":{"sx":1,"sy":1,"depth":18,"w":{"0":0.0751695978329638,"1":0.06065861843554961,"2":0.020029800497895486,"3":0.06685708243968595,"4":0.04888502305487353,"5":0.07760734433511024,"6":0.11011131940685956,"7":0.13530297009462622,"8":0.10573084680456048,"9":0.043947169882287036,"10":0.06982666475777932,"11":0.08005458864857476,"12":0.0946274198212145,"13":0.06462065711738643,"14":0.07879561144899522,"15":0.1049839918004244,"16":0.14930882760197092,"17":0.16239742931830697}}},{"out_depth":18,"out_sx":96,"out_sy":96,"layer_type":"relu"},{"sx":4,"sy":4,"stride":2,"in_depth":18,"out_depth":18,"out_sx":47,"out_sy":47,"layer_type":"pool","pad":0},{"sx":5,"sy":5,"stride":1,"in_depth":18,"out_depth":20,"out_sx":47,"out_sy":47,"layer_type":"conv","l1_decay_mul":0,"l2_decay_mul":1,"pad":2,"filters":[{"sx":5,"sy":5,"depth":18,"w":{"0":0.052713303257395094,"1":-0.05795016978459666,"2":0.02485194487017622,"3":0.06463379461430631,"4":0.0010896419432730275,"5":-0.03738517176908908,"6":0.033608773371760305,"7":-0.007199215521493388,"8":-0.04109137616380823,"9":-0.026761511294964783,"10":-0.012470006308437177,"11":-0.08956705768434567,"12":0.00540204752471254,"13":0.028017400191621574,"14":-0.05022361030330716,"15":0.057733531439257545,"16":0.11851053003519108,"17":-0.0028276096510020956,"18":0.032502886255270175,"19":-0.033783949265532444,"20":-0.017647618223893054,"21":0.02713735248334582,"22":-0.03830948575677173,"23":-0.028236639397767195,"24":0.0944814580507595,"25":0.0029144394631081534,"26":-0.05613184414562512,"27":-0.05321320351528323,"28":-0.029738447450857866,"29":-0.054318801029804145,"30":0.013979257573448235,"31":-0.027778035312151433,"32":0.0026743239283988766,"33":-0.016876276307286116,"34":-0.03148531676667926,"35":0.051194714899688666,"36":-0.09122573869787756,"37":-0.04086532111510649,"38":0.05702668777595064,"39":0.03165717914618107,"40":0.05063152265834289,"41":-0.10010431346224363,"42":-0.021995317057321346,"43":0.02196347175702699,"44":-0.04770611914418964,"45":0.0013514483926970163,"46":-0.03363442002179034,"47":-0.025291899175580272,"48":-0.021924702511488047,"49":-0.01610634662217281,"50":0.030651101790037084,"51":0.0085522645403476,"52":-0.016909206898859636,"53":-0.04176358156293044,"54":0.03797625486429865,"55":0.048579571728207815,"56":-0.031480743619191856,"57":0.06436765514929073,"58":0.0220097257717447,"59":-0.007782737743010651,"60":0.011967864540826772,"61":0.04253631700540851,"62":-0.08849447020314703,"63":0.048514527769611904,"64":0.01510376125880477,"65":-0.058780559597661625,"66":-0.019807813635197978,"67":-0.018384934134695816,"68":0.013878695453603578,"69":-0.0077842066578069835,"70":-0.053019705906793745,"71":-0.04838137762015706,"72":0.08867739940258787,"73":-0.09187171791520007,"74":-0.0673757321032039,"75":-0.12045423681835962,"76":0.01497959468401537,"77":-0.030231888837025614,"78":-0.08548213206668914,"79":0.07031658344022133,"80":0.10073948527643091,"81":-0.05866697271508746,"82":-0.04194678852061283,"83":0.06044245636824118,"84":-0.06697488678087307,"85":-0.1179163433768828,"86":-0.06373365169089955,"87":-0.04656027090789067,"88":-0.013769593301519407,"89":-0.03347052708164016,"90":-0.028453517977739852,"91":0.0071252320378614184,"92":-0.05560788793035277,"93":-0.06317112798865128,"94":-0.07224513341716333,"95":0.07541437641305553,"96":-0.003576242809128932,"97":0.020168977609799854,"98":-0.08575196973077105,"99":-0.0736727625342286,"100":-0.029783282663841122,"101":0.024436426989641068,"102":-0.03261500630391891,"103":0.07992722327826444,"104":0.06165650959081073,"105":-0.03552057444024249,"106":-0.061552955675194,"107":0.05846884847472678,"108":-0.0347870365837446,"109":0.05050456724664196,"110":-0.021613106689508898,"111":-0.037297154487275976,"112":-0.05232556727295008,"113":0.025870150065951662,"114":-0.07479280664512533,"115":0.01811624582083486,"116":0.04788662845952485,"117":0.03688341159638688,"118":0.012166184362991226,"119":-0.08538137095204895,"120":-0.0009408829532036412,"121":-0.07669201375440513,"122":-0.06438013530210333,"123":-0.05638442262694861,"124":-0.037788052707370276,"125":0.013114506770727225,"126":-0.04763324705546732,"127":-0.015364599765101333,"128":-0.03194653528842118,"129":-0.05158738279184483,"130":0.03576473136288422,"131":0.09591236839961759,"132":0.03028781048628404,"133":0.026785086314803933,"134":-0.015514544308579048,"135":0.02695081115918938,"136":0.0326325067281533,"137":-0.04050645212304162,"138":-0.0827501657799704,"139":-0.014337528054233255,"140":-0.07500997503763372,"141":-0.0029149031545883095,"142":0.00797260714548276,"143":-0.06263563133422771,"144":0.062106740520578324,"145":-0.02538075660270232,"146":0.0029985023654233852,"147":-0.059698817062197554,"148":-0.022831616980849886,"149":0.10174042810425543,"150":0.0036529261345216724,"151":-0.04742532267716413,"152":-0.09982668136235688,"153":-0.05897779377048751,"154":-0.033134341197386945,"155":0.01431749549571655,"156":0.004427159515488123,"157":-0.060623557929703496,"158":-0.07664938015996214,"159":-0.06115497071026597,"160":-0.011853481824682162,"161":0.0029329402857575047,"162":0.02945463633085504,"163":-0.028338810153238796,"164":-0.012665511303872884,"165":-0.014164672978562089,"166":-0.02191422992372761,"167":-0.04377800892738753,"168":-0.005287748385787551,"169":0.06898908279499288,"170":-0.063919350829929,"171":-0.03378087127327514,"172":-0.03540905630277772,"173":0.03434184738156339,"174":-0.07786794006497921,"175":-0.017910102195578204,"176":-0.004100143193970638,"177":-0.08734925659731818,"178":-0.029825406254871182,"179":-0.03764734948927547,"180":0.012032221200848884,"181":-0.010287012121021932,"182":0.10678656465900775,"183":-0.0007366424248740353,"184":-0.008005296403103053,"185":-0.011778751539405647,"186":-0.022347736677472464,"187":-0.01590534125972185,"188":0.017105541900082212,"189":0.02068254835976282,"190":0.04374230666067466,"191":0.022294777809190737,"192":-0.05721969935680931,"193":-0.005630912809272488,"194":-0.01902428715117782,"195":-0.026574595055984383,"196":-0.09489070397240175,"197":-0.004586798883280263,"198":-0.01630054602935963,"199":0.0010092151938624343,"200":0.03869256854593607,"201":-0.06545306305633515,"202":0.01923281656442589,"203":-0.04133724831611213,"204":-0.017980855708565058,"205":0.031106131361952727,"206":0.026420892249719847,"207":0.020867752468542635,"208":-0.13267400034785234,"209":-0.008436013483256247,"210":-0.05985295869987272,"211":-0.018986641431379712,"212":-0.056144195336350865,"213":0.03131211280372146,"214":0.05685630459607997,"215":-0.026898622505107012,"216":0.006724373806046148,"217":0.021120076416839384,"218":-0.09538641389163245,"219":-0.049447208051816356,"220":0.0525663237796097,"221":-0.06890089011027282,"222":-0.0006091711135805004,"223":0.027248997706086308,"224":-0.015432331760119267,"225":0.043071771967104364,"226":0.026477723162997353,"227":-0.02525551331345593,"228":-0.016185959634011232,"229":-0.01703139102328774,"230":-0.056481895762167104,"231":-0.00461981923296971,"232":0.0008339462764119305,"233":-0.019593118766163396,"234":0.003320236070783393,"235":-0.0473451017911831,"236":-0.010647785637069166,"237":-0.04506452555702239,"238":0.07679755476937226,"239":0.03674273564437508,"240":0.046152847179719896,"241":-0.0408750742190983,"242":0.011520158663892256,"243":-0.09888458251945499,"244":-0.0765784088151322,"245":0.022012566250359532,"246":0.0357970659283843,"247":0.040429975234332595,"248":0.024523454067120205,"249":0.0938519657499047,"250":0.006579617510414761,"251":-0.06058585141413869,"252":0.01956700356047141,"253":0.00030450275900584885,"254":-0.005009629600569505,"255":-0.03948023798335647,"256":0.047769399395070515,"257":0.03651773152898791,"258":0.08518522560727929,"259":0.046132123293848734,"260":0.0033855438931925308,"261":-0.0032265081620173543,"262":-0.11680394995002617,"263":-0.0673721602420748,"264":0.06563490316741506,"265":0.024775724387251345,"266":0.0008569630653887377,"267":-0.005638635511600422,"268":-0.055760173593105124,"269":0.04122992928629853,"270":-0.0012769619945969422,"271":0.0012313873178663784,"272":-0.003069370967104176,"273":-0.04663397483626803,"274":0.003024818139448953,"275":-0.09329317044739849,"276":-0.054862019816295626,"277":-0.01775890841018575,"278":-0.05323944513592363,"279":-0.06192730075326228,"280":0.04138799059201142,"281":0.03549090206558734,"282":-0.03836456787748299,"283":0.09202510791301416,"284":-0.04282037162879849,"285":-0.06661811788400215,"286":-0.018574408038570616,"287":-0.04519394471657747,"288":0.013829448782902204,"289":0.05399493040469437,"290":-0.06027290971779443,"291":0.01899973537429954,"292":-0.003854734372262691,"293":-0.03256142628640093,"294":-0.02027477082989892,"295":-0.11937172939540061,"296":-0.08309668805380371,"297":-0.005545007266331484,"298":-0.0012251147709528747,"299":0.05317502028277662,"300":-0.03911561673160392,"301":-0.040600311791343435,"302":-0.03518614846342954,"303":0.007165678600434093,"304":0.03619554718939133,"305":0.06470983961193305,"306":-0.0384129804553566,"307":-0.05401913613273323,"308":-0.012799121124976626,"309":-0.016564332928092958,"310":0.001752882148094829,"311":0.018144771915000992,"312":0.0023488850760398933,"313":0.02634248424253231,"314":-0.10862194078480206,"315":0.03620743140400567,"316":0.008980070467454379,"317":0.06615964094988544,"318":0.05834371359615006,"319":0.0405099094845034,"320":0.011229073592679727,"321":-0.08073353081219045,"322":0.014005673366738925,"323":0.0951027856931803,"324":-0.010802784970352983,"325":0.04047040942997327,"326":-0.04932588751653386,"327":-0.026407158357151104,"328":0.058425873252393706,"329":0.04540510819177304,"330":0.008560854769000951,"331":0.019659437942903042,"332":-0.043845152193795194,"333":-0.032799574654405264,"334":-0.04568649333720835,"335":0.000050937968562904695,"336":-0.07090157311175802,"337":-0.006568483161403277,"338":-0.04840777262294809,"339":-0.08951993263418093,"340":0.04215316791804294,"341":0.01806436808049568,"342":-0.012448477618412224,"343":0.10700200845288951,"344":-0.05074336939365309,"345":-0.0008208646376990172,"346":0.03353084153092293,"347":-0.018597550964758364,"348":-0.06708975652222585,"349":-0.015825008160364806,"350":-0.09295598470075421,"351":0.022657499060046726,"352":0.024056902655225074,"353":0.04441095286682164,"354":-0.02744961143365179,"355":-0.04575893798552216,"356":-0.07877937074392202,"357":-0.03293470697159956,"358":-0.00860855643633049,"359":-0.009367298329199922,"360":-0.011753313298813304,"361":-0.0005855173412897944,"362":0.00869697259774598,"363":0.006691875821693002,"364":-0.07017761578192466,"365":-0.0116394930759655,"366":0.01106204756987325,"367":0.04887266800217323,"368":0.08082188174233632,"369":0.0050103309510539235,"370":0.017943686893827374,"371":0.020832581104528014,"372":-0.054890387160241125,"373":0.016675281529033442,"374":-0.0023993745732684042,"375":-0.05646312473537254,"376":-0.0455868398226536,"377":0.001449953763148552,"378":0.024166734574985433,"379":0.0008467434458833087,"380":0.004994889590367812,"381":-0.0535604327850367,"382":0.06260284453916849,"383":0.07296801111691167,"384":0.05664643083085606,"385":-0.012798408836821273,"386":0.08359839378829814,"387":0.05955635804032244,"388":-0.06862918639237621,"389":-0.06928890126509842,"390":-0.01359805674537389,"391":0.017608916343546693,"392":0.0020565947684801295,"393":-0.062065949644889484,"394":0.03756772716828245,"395":-0.04251080802717876,"396":0.09769263819232533,"397":0.0014588417130759039,"398":0.005491582874800422,"399":-0.01417594972942386,"400":0.07754016754187816,"401":-0.06792901433857823,"402":-0.0347640220399632,"403":0.003748528738058516,"404":-0.03442833230978334,"405":-0.03913104566815437,"406":0.000527516020603008,"407":0.0028568929208092715,"408":-0.02781616144718244,"409":-0.038424731903524835,"410":-0.05324080209709402,"411":-0.13142636291922175,"412":-0.08446345981333318,"413":-0.00024605387187433964,"414":-0.051318295425237664,"415":-0.009275209102160979,"416":0.05970141544166576,"417":-0.034365647830854724,"418":-0.04495830411607479,"419":0.032400585741591555,"420":-0.08857700509625156,"421":0.07144927059772958,"422":-0.01446702547172428,"423":-0.020716107643083397,"424":-0.058941581951064456,"425":-0.06834080099138613,"426":-0.04354394197916203,"427":-0.04503894301832808,"428":-0.039561447420348575,"429":-0.1319586906503247,"430":-0.017429571062512573,"431":0.006653467482917383,"432":-0.02749308761138133,"433":0.0074691095818608284,"434":0.04008288547769612,"435":-0.03937468926930684,"436":0.013928070957698858,"437":0.049040377981929784,"438":-0.01309357931887727,"439":0.017143452874565916,"440":0.010028938903797543,"441":0.04284584811020383,"442":-0.1073073061702879,"443":0.00798528533205433,"444":0.09182179141863268,"445":-0.0013139285169416924,"446":0.0145150622817329,"447":-0.08942339003888486,"448":-0.016171481278382374,"449":-0.034962074104384434}},{"sx":5,"sy":5,"depth":18,"w":{"0":0.0302727839475495,"1":0.017203065468038917,"2":0.012627023758561796,"3":-0.11236236882201826,"4":-0.06784426991200233,"5":-0.010134788485141667,"6":-0.05738144211086512,"7":-0.0466564621880951,"8":0.06510037962284367,"9":0.10553019797728526,"10":-0.00948327771306547,"11":-0.028234671504726288,"12":-0.037241320600092116,"13":0.007606201820560254,"14":-0.024207664573152366,"15":-0.03175964935360796,"16":-0.10516367470679859,"17":0.002856216861385176,"18":-0.002469998026758799,"19":-0.006228959501264967,"20":0.022164080098558428,"21":-0.07700373361402942,"22":0.10639487469742735,"23":-0.0547219082468431,"24":-0.017437989208082094,"25":-0.036205730532370375,"26":0.11254468146238102,"27":0.02810447179794891,"28":0.046331453361980135,"29":-0.07389427276834613,"30":-0.07245414562093416,"31":0.04359145973796854,"32":0.012766206973659431,"33":0.030830395085696852,"34":-0.0027172084043958233,"35":-0.07397566558954106,"36":0.04022454783670414,"37":0.0158522259033935,"38":0.07955071697027184,"39":-0.0901426597931721,"40":0.023747042471145063,"41":-0.02034779074826378,"42":0.02416492068136397,"43":-0.08943164315297823,"44":0.061699315628684435,"45":-0.01538034232326464,"46":0.06159069955213974,"47":-0.013945663824361486,"48":-0.07004458070054063,"49":-0.05858950159790337,"50":0.028915645113668224,"51":-0.06966976146601012,"52":-0.09479733107372239,"53":-0.006288325266726801,"54":-0.03330844936394256,"55":-0.008396903648304548,"56":-0.024149281309538178,"57":-0.019888255752440128,"58":-0.027474060666623345,"59":-0.025084987331672904,"60":-0.11289239650089604,"61":-0.07502372596312079,"62":0.14556572223808648,"63":-0.0195655767913349,"64":0.03713322402755555,"65":-0.04501161189755151,"66":0.01997875197887066,"67":0.09118596548440402,"68":-0.05095159233973315,"69":-0.04843385878304985,"70":-0.017952665582564052,"71":0.015368242153174089,"72":-0.001142170536162601,"73":0.04317181273875227,"74":-0.09415540977825156,"75":0.02666402051406751,"76":-0.09040586280765125,"77":-0.007081857456358394,"78":-0.05969623556870296,"79":-0.07750505128370398,"80":0.12869965476012338,"81":-0.06335704275032975,"82":0.010003629120999202,"83":-0.10768182635098807,"84":-0.08251984689809476,"85":0.009913367551272676,"86":-0.0027452897633252356,"87":-0.032997158962701036,"88":-0.08829491894979462,"89":-0.0018907305292086899,"90":-0.05110271929049933,"91":0.05937457742910696,"92":-0.018285670023629255,"93":-0.04258856191181385,"94":-0.05613367152282921,"95":-0.0336025811707827,"96":0.009240249809281459,"97":-0.01078386212639013,"98":0.09720174820910138,"99":0.02122709989675608,"100":0.05948317097645839,"101":-0.0020148405274386526,"102":0.03858930155715641,"103":0.011203943253144907,"104":0.020281203153491165,"105":-0.07209950065410951,"106":-0.06878820655117841,"107":-0.08674631846826017,"108":-0.03521874675727158,"109":0.05077815777060537,"110":-0.011435090780343295,"111":-0.07836386643007036,"112":-0.054508696664865144,"113":-0.0025036495078439133,"114":0.024168859754650218,"115":-0.022241971091029634,"116":0.12194702952346195,"117":-0.13350543818600863,"118":0.04733766364784822,"119":-0.04173711724895502,"120":0.042599391978485106,"121":-0.016061064025341285,"122":-0.03838345409977897,"123":-0.13585897632619537,"124":-0.1106889960760863,"125":-0.0796863581518994,"126":0.0009983079064838879,"127":-0.033264182552730864,"128":-0.06503827330569847,"129":0.08046514250923992,"130":0.04362964274844196,"131":-0.06536167829153305,"132":0.04902948368991496,"133":0.019503097864328817,"134":0.018361949320494564,"135":0.06677914652024257,"136":0.07473261964095962,"137":-0.02334677459033002,"138":-0.04968541535050421,"139":-0.04474989149418257,"140":-0.10525585219496923,"141":-0.005310084957275306,"142":-0.0662724107582407,"143":-0.09287245780540158,"144":-0.10653684874601506,"145":0.01216727709164447,"146":-0.01173323208004335,"147":-0.03481098031122049,"148":-0.011320121390722351,"149":0.04422730922008432,"150":-0.0022560785494186715,"151":-0.04100663481727468,"152":0.13513637670988515,"153":0.07343381585944142,"154":-0.0472654042254534,"155":-0.02715694028474116,"156":-0.09772657912696191,"157":-0.09982101660378855,"158":-0.044314257139163225,"159":-0.05055256776524655,"160":-0.09825469050196078,"161":-0.05100165247716518,"162":-0.08379492244259684,"163":0.0314511464397197,"164":0.003517132231870371,"165":0.08440620329792087,"166":-0.0017605970387286585,"167":-0.01938179945496526,"168":-0.05392274347145004,"169":-0.024875107334004665,"170":0.046913002947141624,"171":0.10574176772300746,"172":0.017315496596693035,"173":0.0253084104985643,"174":-0.09160861319636499,"175":-0.016490050760902458,"176":-0.06870786828979845,"177":-0.06372709284652416,"178":0.030395545004758658,"179":0.006604413366327343,"180":0.03479841850428846,"181":0.029523442957978853,"182":0.054978036691790924,"183":-0.12386077944929604,"184":-0.042021675845129405,"185":-0.0008172530981470457,"186":0.0376594763402626,"187":-0.11067784408653421,"188":0.15182777912977927,"189":-0.018885024311635423,"190":0.06466182336264144,"191":-0.02543327681934019,"192":-0.05437610861276066,"193":0.01462684588313515,"194":0.023150833561742593,"195":-0.07973790697768672,"196":-0.025318503610253097,"197":0.015826345504387076,"198":-0.057083572508357334,"199":0.020821573988263516,"200":0.07248121062192377,"201":-0.00012479366977318304,"202":0.03194032239285297,"203":0.050341567835444107,"204":0.07343731266974622,"205":-0.03701063957797114,"206":0.11349362477138528,"207":0.030883396249260273,"208":0.09704688314332377,"209":-0.038758740644128514,"210":-0.11019083800302124,"211":-0.0730648495753693,"212":-0.09127116730402693,"213":0.006481559423066841,"214":0.05270977018442667,"215":-0.0486812843887171,"216":-0.02096073284311737,"217":0.08637791299087548,"218":0.09228439804210986,"219":-0.03406440673098187,"220":-0.024643288257005232,"221":-0.0808442521344736,"222":-0.09669232572509008,"223":0.012544277354890854,"224":0.1280295531819031,"225":-0.024963373519477333,"226":0.09042300850547794,"227":-0.0034501273286301867,"228":0.01454333770964446,"229":0.03630303182560124,"230":0.06223621924147579,"231":-0.05798988485506573,"232":-0.0037045282715921415,"233":-0.05999971698788127,"234":0.013051929924843253,"235":0.02259131242227417,"236":-0.007402538522693978,"237":0.048345471313183334,"238":-0.01288979374760569,"239":-0.03728211149607192,"240":0.020835020309657025,"241":-0.024737210265419318,"242":0.1824335620169781,"243":-0.0015246194805217455,"244":0.15429000954404237,"245":-0.015256979153720391,"246":-0.021583519989078516,"247":-0.01211944473045506,"248":-0.08937847034589502,"249":-0.06380513647283541,"250":-0.05707914303403322,"251":0.007372397097657944,"252":-0.051817493304791296,"253":0.04102079170988878,"254":-0.01185008673635427,"255":-0.05116435491310848,"256":0.03827743643391629,"257":-0.037961389218111256,"258":0.050534121830008674,"259":0.016343724048218367,"260":0.09543281518011505,"261":-0.0576200104813784,"262":0.09966006435939281,"263":-0.15038686489833877,"264":-0.014722090187393878,"265":0.02153549382608511,"266":0.043555926863448,"267":-0.013210199158627985,"268":-0.04182678378181932,"269":-0.1013443314471482,"270":-0.09349484837435434,"271":0.09777356687496669,"272":0.048296035556004854,"273":-0.011181901831117422,"274":-0.041687965682879816,"275":-0.07697784269661455,"276":-0.005629917993256354,"277":0.070670646290855,"278":0.1301656348604191,"279":0.015533981318211546,"280":0.1017331283408815,"281":-0.056623258632997026,"282":-0.05912266457711317,"283":-0.031542793441545106,"284":-0.08774161514854507,"285":-0.028593215341109326,"286":-0.08586476474287295,"287":-0.06803411280716351,"288":0.11147700850045716,"289":0.06893612643254873,"290":0.07019659459651564,"291":-0.017931368204728942,"292":-0.023056460189908236,"293":0.04249402772797605,"294":-0.0230282034299497,"295":-0.09869104315185677,"296":0.10348060825397501,"297":0.014354430697323376,"298":0.11124922964464301,"299":-0.015215751368759675,"300":0.006335135880372326,"301":-0.062033219245997195,"302":-0.002338635694627408,"303":0.04097399951414074,"304":-0.013178111988186487,"305":-0.0569905082991448,"306":-0.040494518390576724,"307":0.02036830983847372,"308":0.034013808824627116,"309":-0.002106145154338468,"310":-0.025788765076892203,"311":0.04593788369928564,"312":-0.011718101227508038,"313":0.022739154293725642,"314":-0.0001521727941563931,"315":-0.011523415685480895,"316":0.09707951978074991,"317":-0.010662145315867186,"318":-0.02477648241245614,"319":0.05841761111847412,"320":-0.00556436674290438,"321":-0.03914344136601345,"322":-0.07469078967777903,"323":-0.010716215662305848,"324":0.0037510080653576547,"325":0.10619012243394126,"326":0.06569865514997486,"327":0.012568004322081468,"328":0.03907802033617223,"329":0.04230014818142033,"330":-0.09842814038918084,"331":-0.018170987041422053,"332":0.06733290908354123,"333":0.018667538026250437,"334":0.13504754055315113,"335":0.08214851729049501,"336":0.002913237921271877,"337":0.010916799094912097,"338":-0.04537453143219556,"339":-0.014289964094341514,"340":-0.04960718664338626,"341":0.0672231803983423,"342":-0.14460389854728586,"343":0.08736996200054055,"344":-0.010967067089978681,"345":-0.07871523379135495,"346":-0.06599965716660029,"347":0.06915796875319824,"348":-0.06436168138261135,"349":-0.09666401535839923,"350":0.09468179609845234,"351":-0.034341676883290914,"352":0.16545252448193065,"353":0.012727883190578526,"354":-0.08103501742660266,"355":0.036043985888814335,"356":-0.009756984124548687,"357":-0.04565199906009527,"358":-0.04626339337734486,"359":-0.004846410079512257,"360":-0.013871476188249543,"361":-0.031067283692411997,"362":-0.09557921090776564,"363":-0.11854870877975925,"364":-0.005145762656291416,"365":-0.01468331322213861,"366":-0.04955578196625519,"367":-0.054814163848059747,"368":0.05726707418657873,"369":-0.03284137562605663,"370":-0.00725460447155829,"371":0.012275279078678892,"372":-0.0050518812867523365,"373":0.054431777177216145,"374":-0.09073372957996803,"375":0.017961778672348407,"376":-0.08620953234321335,"377":-0.07587991223875887,"378":-0.11707966081033169,"379":0.11934082458543657,"380":0.04205280870190258,"381":-0.0008210835633724793,"382":0.002632006064413168,"383":-0.03512746122809472,"384":-0.07635829810802879,"385":0.08500628264759028,"386":0.11038317404213416,"387":-0.10220894016476094,"388":0.06044699161152829,"389":-0.055392411831924344,"390":-0.03172048408199914,"391":-0.0709526119531693,"392":0.005604138338857469,"393":-0.050752853033416034,"394":-0.07107242878581577,"395":-0.038640909373597404,"396":-0.002973759169799549,"397":0.00970429269766135,"398":0.009011418166248833,"399":-0.0852917452651515,"400":0.0015551635134798706,"401":-0.020082544674836247,"402":0.07358737617723687,"403":-0.10974370553346424,"404":0.09031242905923055,"405":0.025986778560654063,"406":-0.06480518953145346,"407":-0.04248116174556808,"408":-0.006174170529831724,"409":-0.009010937779046746,"410":-0.12110041524626206,"411":-0.07392310569953374,"412":0.0710132232802573,"413":-0.02907121167204684,"414":-0.0007371860972382163,"415":0.01956700807594708,"416":-0.026118344439016585,"417":-0.04350095084113229,"418":-0.01676051808345278,"419":0.03430537089084442,"420":-0.06057325899883419,"421":-0.012975929124805849,"422":0.110481179859272,"423":0.020013288186469372,"424":-0.01565165655999082,"425":-0.16107022984522612,"426":0.007588233288796705,"427":0.09138653007616376,"428":0.004587520736766776,"429":-0.10696693579196476,"430":-0.061361237778103615,"431":0.03791779364499876,"432":-0.036449320844464395,"433":0.09502112294354523,"434":0.02992343055397627,"435":-0.0017327964834082767,"436":0.031667395503858636,"437":0.03528119784532503,"438":0.023360086005170602,"439":-0.00267432487168731,"440":0.1485357583413151,"441":0.02523268410139244,"442":0.041412537093807926,"443":-0.09630614413335997,"444":-0.09308142239996763,"445":0.013865393974208051,"446":-0.08579777167526338,"447":-0.09530771578987134,"448":0.100186725364731,"449":-0.08653618268721831}},{"sx":5,"sy":5,"depth":18,"w":{"0":-0.025960012966082937,"1":0.012236884615928542,"2":-0.06531129044442552,"3":-0.048157354627874766,"4":0.02042437062893327,"5":-0.08136814615894829,"6":-0.025088384474629164,"7":0.016138426230391446,"8":0.04923057619297108,"9":0.03949255139802493,"10":-0.005712093660054017,"11":0.0028422429141129507,"12":-0.021439791411376065,"13":0.027879163056322445,"14":-0.06907847173609488,"15":-0.08025360637495157,"16":0.05882090577500268,"17":-0.09063705779911299,"18":0.10881690169313192,"19":0.022718997916995696,"20":-0.11154316817973259,"21":-0.005746871327213709,"22":-0.03433845643437398,"23":-0.11455806185649797,"24":0.02242683487657615,"25":-0.03225326116867408,"26":0.08779692825530558,"27":0.002493123657418711,"28":0.018062405264982654,"29":-0.07467928379907161,"30":-0.010078325256070338,"31":0.03749839730270567,"32":0.04038269198176093,"33":-0.02199649419089573,"34":0.029670878021831566,"35":0.009586122324380157,"36":-0.13478767056840849,"37":0.0478940491866948,"38":0.009556122902482122,"39":0.03876442312923303,"40":0.012227154502619724,"41":-0.12794140507814222,"42":0.029265995030175074,"43":0.028578139072310715,"44":-0.029666643250557068,"45":0.021217893414873106,"46":0.05033413450361552,"47":-0.030397081557793842,"48":-0.00929852564587288,"49":-0.018022180639482577,"50":-0.046549648875827535,"51":-0.0021091751280255234,"52":-0.010384861845279827,"53":-0.03874935685370689,"54":-0.06026849405198684,"55":0.0028590544829938014,"56":-0.05168605561260999,"57":0.0009583624177548784,"58":0.04909264140209658,"59":-0.0033962022508605273,"60":0.04483524677766217,"61":-0.012618236345388018,"62":0.02747529482635241,"63":0.027779661537702217,"64":0.10032142646459234,"65":0.010326657147435152,"66":-0.06592200043450706,"67":-0.052776465631872056,"68":-0.04989707646560192,"69":-0.06331485776918663,"70":0.039565362456197836,"71":-0.02302639658007278,"72":-0.16780698354457166,"73":0.03197064544407386,"74":0.04519506605424411,"75":0.006608410834796962,"76":0.03656493670948747,"77":-0.0459644495777905,"78":0.04161331193306489,"79":-0.0779559643566595,"80":0.1425930243361992,"81":0.0688461830386914,"82":-0.029724245267777682,"83":-0.062093701420755716,"84":-0.03692226514037738,"85":0.05543615111988326,"86":-0.008553252751297211,"87":-0.07997014447518447,"88":0.00011080966715891236,"89":-0.038152275101761134,"90":-0.052598782041858014,"91":0.1102942345723274,"92":-0.04869448409748579,"93":0.018065092800397767,"94":0.01930577938294894,"95":-0.015612643929239918,"96":0.02465727862509648,"97":-0.08955905452175476,"98":0.09881312650723201,"99":0.011895113947148999,"100":0.1700469387786421,"101":-0.05777206080218724,"102":0.04119070901690105,"103":-0.05284561585090249,"104":0.019915427890803344,"105":0.013378038121065423,"106":0.14368989836138904,"107":0.047699918086419685,"108":-0.02193316280725217,"109":0.015991686265522383,"110":-0.02794962926331327,"111":-0.06313955732753329,"112":0.08781183603555631,"113":-0.02895560342294205,"114":-0.04758751434563161,"115":-0.006690737231551115,"116":0.0978927400841968,"117":-0.1313642399090974,"118":0.04792340086307738,"119":-0.03463572423839071,"120":0.009713794801941518,"121":-0.03619998777788394,"122":0.0306878136163114,"123":-0.04796850644196508,"124":0.029547869737984265,"125":0.00364561806165287,"126":-0.03378757483431485,"127":0.08656389108076278,"128":-0.07224819940196656,"129":-0.00406356575814543,"130":0.020482649040354347,"131":-0.03658906528400412,"132":0.04172337502287363,"133":0.00825516995338478,"134":0.042034244657896805,"135":-0.06574702783380405,"136":0.06809789312160956,"137":-0.09100399010178443,"138":-0.02486507546192183,"139":-0.04651348295065447,"140":-0.0861162338995772,"141":0.059411796204901404,"142":0.09056087384561079,"143":-0.02636740642486842,"144":-0.0833487767548024,"145":0.04320340033714749,"146":-0.02151967355656002,"147":0.046443320486912756,"148":-0.04575769536856288,"149":0.017296894476666252,"150":0.008996409486718076,"151":0.033841656269974985,"152":0.09359116995517608,"153":-0.00811650908622114,"154":0.09955173898016462,"155":-0.07138771891607285,"156":-0.033952031456279425,"157":-0.001708899671432572,"158":-0.15356375362343685,"159":-0.06243231914414185,"160":0.05071891394340371,"161":0.043253536703262215,"162":0.027384526446525666,"163":-0.02810416755711954,"164":0.05924352099114593,"165":0.05089429874894536,"166":0.06702128164051777,"167":-0.035535379280308727,"168":-0.07906293458891289,"169":0.061303887081321624,"170":0.001338549142734474,"171":0.006645748438156533,"172":0.0020963810975459696,"173":-0.050412026893984226,"174":-0.071391104267474,"175":-0.03258396877583937,"176":-0.0006041759291322356,"177":-0.004785273011137435,"178":0.03769835632173841,"179":0.008903834302700017,"180":0.1208319224856308,"181":0.050416821122817986,"182":0.03135234167284015,"183":-0.04438027747400312,"184":-0.03150936135884949,"185":-0.08405335868630322,"186":0.019773331088406242,"187":0.07164894376420075,"188":0.06341729304309279,"189":-0.0001758095983992772,"190":0.05126939875546357,"191":-0.026072428413446508,"192":0.0165914316645675,"193":0.031199151615324026,"194":0.039336483304244066,"195":-0.05855517154720357,"196":-0.054480859892603206,"197":0.043379576272397684,"198":-0.03635292005285605,"199":0.021453521447600488,"200":0.0805294983613332,"201":0.006678290296790632,"202":0.009067165103556027,"203":0.0020141562160711215,"204":0.011967550569744542,"205":-0.015202769586485544,"206":0.056689525253857835,"207":-0.05047756093150333,"208":0.11860102726472112,"209":-0.06852242443568762,"210":-0.05598303241841042,"211":0.031015133027910567,"212":-0.019351185743690644,"213":0.02014845729358187,"214":-0.035501292198501476,"215":-0.05059733595537111,"216":-0.07994540689954045,"217":0.022398297782418777,"218":0.052738974869307675,"219":-0.03826453654880506,"220":0.005506598038515041,"221":0.02203796407828684,"222":-0.02291453459885902,"223":-0.08056210988678762,"224":0.08370180570410121,"225":0.0554964724124797,"226":0.06034785464520172,"227":-0.0884879889506935,"228":0.04214449292308413,"229":0.06157871766983014,"230":0.018065883368436727,"231":-0.013316045239516046,"232":-0.06661273046487776,"233":-0.11796468501248922,"234":0.04851020050730327,"235":0.023562183902194715,"236":0.01554479356408997,"237":-0.03646212558011088,"238":-0.01754473334721373,"239":0.07403312969864204,"240":-0.05557080786126195,"241":0.08106656839255573,"242":0.09395807075675107,"243":0.031669890873351696,"244":0.07624370878781583,"245":-0.07704861782989667,"246":-0.034099570423231605,"247":0.02675887360540198,"248":-0.020480381471822174,"249":0.020937865726837323,"250":0.03874757205507579,"251":-0.061437101695256686,"252":-0.031713407683011945,"253":-0.027401438126700095,"254":0.0710162234586043,"255":-0.05600768495401626,"256":-0.025441987868981927,"257":-0.008100328713273578,"258":0.0652028581916569,"259":0.06237907832273992,"260":0.042888267808319135,"261":0.035056030774607776,"262":0.08342641722719585,"263":-0.07959119755281661,"264":0.0012566973296643511,"265":-0.09443250787952892,"266":0.023053673017029395,"267":-0.031231263048099978,"268":-0.018775903135822336,"269":-0.00018226765248256945,"270":-0.010224299812175685,"271":0.07555894928189422,"272":0.06403846919917776,"273":0.05985376435145786,"274":-0.14195595491121016,"275":0.06002860119960406,"276":0.004376315508925205,"277":-0.16780546779356026,"278":0.04865349568136009,"279":0.05784852513581405,"280":0.11937581988283227,"281":-0.04802301521333984,"282":0.063005110575432,"283":0.03352468288405568,"284":-0.06759071221827338,"285":-0.0004242149833982412,"286":0.011439837805837664,"287":0.03225801247286388,"288":-0.019166983022950817,"289":0.12334773230216882,"290":-0.05277569595296255,"291":-0.04192657412196936,"292":-0.014592173955837581,"293":-0.006977657887833597,"294":-0.03417140879284632,"295":-0.05206898941889573,"296":0.09447448243460821,"297":0.016073244318148973,"298":0.03890589239852638,"299":-0.0897667469064384,"300":-0.0677958986012686,"301":0.036010954532406554,"302":-0.009592095905960869,"303":-0.007407871695593616,"304":-0.03686410151433432,"305":0.021527954710789384,"306":0.026213736666347253,"307":0.1346947152277916,"308":-0.0028670736654345516,"309":-0.007788489919218814,"310":-0.017160139211702428,"311":-0.0018803749178491177,"312":-0.050696339789379645,"313":-0.040196165583313945,"314":0.09150234407417453,"315":-0.021413490096791096,"316":0.04358116035020416,"317":-0.005889971277302144,"318":-0.09652738935492469,"319":-0.027058660026855582,"320":-0.012480327515933035,"321":0.015245148922710639,"322":0.09210364006150629,"323":-0.11603792461611213,"324":0.018090333768902067,"325":0.10375998482500987,"326":0.08715645255182355,"327":0.08432559463003561,"328":-0.03780751102162072,"329":0.015657091407702835,"330":-0.02183717785375651,"331":-0.012039943222369698,"332":0.15329347935843915,"333":0.06306576880119492,"334":0.02809547166666392,"335":-0.07023160768239875,"336":-0.05026255588250629,"337":0.02420278565909591,"338":0.03363632207587809,"339":-0.0336918461880476,"340":0.009056104156049585,"341":0.013955936217547553,"342":-0.009600663948308014,"343":-0.020659697458539135,"344":0.02708593944720709,"345":-0.18845573760783293,"346":0.006458847931815809,"347":-0.05259537919432783,"348":-0.005053609153098751,"349":0.1130766528557175,"350":0.17513568553332134,"351":-0.05876702462760056,"352":0.14019610011958725,"353":-0.04585438676088575,"354":-0.05009010341706364,"355":0.016180668532840933,"356":0.011432285952390707,"357":0.02778555038881315,"358":0.050993357847197794,"359":0.0032141983704283184,"360":0.05568680707780063,"361":0.0067061701718498234,"362":0.011824668918951472,"363":-0.051397915681534734,"364":-0.05529484985567222,"365":-0.07902248029998928,"366":-0.062412665559884305,"367":-0.02962847335917256,"368":0.07661486862058327,"369":-0.007022778798686271,"370":-0.06227776725934037,"371":-0.014028031376967868,"372":0.007716711258053623,"373":0.029828094086793978,"374":-0.1038427481877697,"375":-0.0238732953499759,"376":0.02787990744034853,"377":-0.020513207526735234,"378":-0.02072777759412604,"379":0.0398258256566603,"380":-0.07168272423342874,"381":0.00161234486110668,"382":-0.05858723984963123,"383":-0.057218064316670786,"384":0.014270083914835544,"385":0.010162601228432355,"386":0.03284629220259487,"387":-0.03208064156666682,"388":0.04215279842336296,"389":0.03737023684361126,"390":0.03026821815788111,"391":0.007138955356107503,"392":0.006215582786401281,"393":-0.09233539691001666,"394":0.07131213002437542,"395":-0.049695836982587865,"396":-0.09242729211728996,"397":0.03927475247656411,"398":0.06968168229792623,"399":-0.016121984796826326,"400":-0.026073216994074527,"401":-0.011856386631818776,"402":0.07568822933029065,"403":-0.011046269000933204,"404":0.09505601312808738,"405":-0.0330432462122737,"406":0.04198863537027206,"407":-0.025195155956399845,"408":-0.04661412155278427,"409":-0.04821091832171308,"410":-0.026210648650280496,"411":-0.05969278449915136,"412":-0.061791579332343353,"413":0.029234479558253108,"414":-0.07369774685171583,"415":0.09664448822369337,"416":0.06583845234117189,"417":-0.045918957195004655,"418":-0.13401340342794185,"419":0.03223352017853685,"420":0.00643204317445919,"421":-0.09469237549516811,"422":0.07743914197780256,"423":-0.05315024148726059,"424":-0.016080291700149168,"425":-0.031444838120648175,"426":-0.05772861287709245,"427":-0.03646492312938397,"428":-0.08000586877772212,"429":-0.006581041672359416,"430":-0.03635747909120168,"431":0.0014498000547289178,"432":-0.04980520787239917,"433":-0.03452450045830658,"434":-0.07630443930519591,"435":-0.06134251601499832,"436":-0.06601914977674038,"437":-0.023646535204223624,"438":-0.014885746452787943,"439":0.0803047152273864,"440":-0.0079158507970589,"441":-0.05153580734433673,"442":0.0019290136384492907,"443":-0.021184007571363028,"444":-0.00909997384612636,"445":0.09022960724947766,"446":-0.042904527742959574,"447":-0.06359581692424017,"448":-0.04908955394330429,"449":-0.003482091098800006}},{"sx":5,"sy":5,"depth":18,"w":{"0":0.08158733397643926,"1":0.03834239320057399,"2":0.035755525601806296,"3":-0.0353441465416504,"4":-0.07520290254755493,"5":-0.05107652729961871,"6":0.054181964570573,"7":0.0003518077760718101,"8":-0.10417708378133049,"9":-0.0869109221230925,"10":-0.03340802042982152,"11":-0.025789888681866952,"12":0.006772658679036934,"13":-0.02875804153694979,"14":-0.01474333403543499,"15":0.040015149321014826,"16":0.0779875533833837,"17":0.005396246953584142,"18":-0.025215486186962604,"19":-0.018066068679942572,"20":-0.0281885083968702,"21":-0.044744440413525405,"22":-0.04951037277270291,"23":-0.018355000062602028,"24":-0.013602517660837402,"25":0.0222080472583707,"26":-0.07418330067386268,"27":0.067333036856968,"28":0.005374700309252047,"29":-0.002272524910637388,"30":-0.01085923179343891,"31":0.0026495523609911162,"32":0.02512650664208871,"33":0.023699577971485856,"34":-0.01746370285511879,"35":-0.06281009956062676,"36":-0.11650545408930632,"37":0.0537512753728027,"38":0.04529001195749397,"39":-0.07152492738740024,"40":-0.04976288619954597,"41":0.017398815408386496,"42":0.0053496102660395405,"43":0.008249207639975555,"44":0.01976450431389308,"45":-0.012815412085450001,"46":-0.023129954772815337,"47":-0.019387237409406677,"48":0.019621073890340946,"49":-0.01951411701766545,"50":-0.041976963270506915,"51":0.08294148502630086,"52":-0.01716287881253055,"53":0.013591621083441417,"54":-0.06988750263750541,"55":0.03922598437105266,"56":0.042847484576306195,"57":-0.07393310358288026,"58":-0.018033966484004873,"59":-0.024726436540541512,"60":-0.04633876531558146,"61":-0.08703169126388419,"62":0.02189654428098962,"63":-0.014944920203589928,"64":-0.02180917039341131,"65":0.02114241264206235,"66":-0.045404094346810045,"67":-0.0400818362104159,"68":0.019701715982677382,"69":0.041081391621456104,"70":-0.0445856141453784,"71":-0.0025105239912400225,"72":0.08894077156005831,"73":-0.021517100573751745,"74":0.05803184191878556,"75":0.014093609313075163,"76":-0.0027907182753296213,"77":-0.04710806348805753,"78":-0.03505161458028627,"79":-0.04379469351078011,"80":-0.04282006611143517,"81":-0.08025698203654874,"82":-0.029089436003953112,"83":-0.055689734503474184,"84":-0.11758797923305835,"85":-0.02034357498868677,"86":-0.11778937829606677,"87":-0.0911057070468004,"88":0.04923535724322842,"89":-0.024869721034101806,"90":-0.007374898391753827,"91":0.012468455172941342,"92":0.07445225513000275,"93":-0.054924594568521785,"94":0.01226432204533265,"95":0.018896685776902074,"96":0.024155114272782326,"97":-0.03070016731605097,"98":0.03250780628711289,"99":-0.07533208245679997,"100":0.02590966658645496,"101":0.009744371637424457,"102":-0.04797280865484922,"103":0.005259525095518526,"104":-0.053806347619751956,"105":-0.04031098483594553,"106":-0.05223055377503138,"107":0.023999557116138402,"108":0.042139594677545945,"109":-0.08695020325064448,"110":-0.043351518623443136,"111":-0.04413134059467631,"112":-0.009780896477210177,"113":0.025541563845672133,"114":-0.07932191587941555,"115":-0.01609156463644443,"116":-0.051259484043871505,"117":0.023469283924723045,"118":-0.0017684821352175698,"119":-0.06691314863059233,"120":0.056783365356833204,"121":-0.03480436010218068,"122":-0.02758255540431042,"123":-0.05151133487677694,"124":-0.05143419539500155,"125":-0.1013354253590436,"126":-0.03784123375615971,"127":-0.03049567151805644,"128":-0.05158744859114696,"129":-0.059990596277484945,"130":-0.031029592695410606,"131":-0.04741181736957357,"132":-0.0011639837338727312,"133":-0.006490256166726636,"134":-0.1059899194055101,"135":-0.03432746704079387,"136":-0.08343511127006072,"137":0.03008726805716998,"138":-0.02641002113303464,"139":0.006198527662758867,"140":-0.058201466436038254,"141":-0.09619912786751823,"142":-0.0004973272739500925,"143":-0.02292293466163119,"144":0.006594477813835062,"145":0.03112029330666062,"146":0.03652735183832073,"147":-0.046762832307088775,"148":0.004609029239304193,"149":0.005206611999091633,"150":-0.05634033031001386,"151":-0.066280431337403,"152":-0.0000927416327677294,"153":-0.03710603217505808,"154":-0.05900666546566437,"155":0.015080092397293177,"156":-0.004485872619750991,"157":0.03799105589019864,"158":0.024878005305921595,"159":-0.011595672274230305,"160":-0.05850043484264036,"161":-0.039437821349983845,"162":0.07782282142257543,"163":-0.056624257538378915,"164":0.05163443903280209,"165":0.04952542588481406,"166":0.05296272844856623,"167":0.025185634659000648,"168":-0.033958658426715964,"169":-0.017981569489836816,"170":0.04129080972829208,"171":0.04615208865648865,"172":0.042952144981112245,"173":0.020574503029327982,"174":0.04457334590855086,"175":-0.029386744975260382,"176":-0.16866475012744947,"177":-0.10266250024026272,"178":0.05521536382512841,"179":-0.01533002444699232,"180":0.01484048335091361,"181":0.0035869138590571125,"182":-0.018959378836471665,"183":-0.04599659438634138,"184":0.032959737799169955,"185":-0.04336660893559944,"186":-0.08530809974903157,"187":-0.04163734089979954,"188":-0.046742933582412376,"189":0.024647811296979957,"190":-0.051406241591072356,"191":-0.017925940145571213,"192":0.001447696334802667,"193":0.08647894920726536,"194":0.020155173164029434,"195":0.019017867966987415,"196":-0.028836622029255563,"197":-0.08143465531969564,"198":0.017369939445195253,"199":0.023679171411463036,"200":-0.06294884737160313,"201":0.004865289973815608,"202":-0.016250620300954494,"203":-0.07642111637953801,"204":-0.01044110116195309,"205":0.030926209297639697,"206":0.016624815529864227,"207":-0.02461097482379251,"208":0.024565579752458825,"209":-0.029478120158378408,"210":-0.09254035456272455,"211":0.008947763861796486,"212":-0.024504241759584718,"213":0.0444456779969432,"214":-0.0033485082089755626,"215":-0.031256097311566824,"216":-0.12333790367113785,"217":0.031332832954199696,"218":-0.03230499581237349,"219":0.03585026911254945,"220":0.015284194718692364,"221":0.04103703608695228,"222":0.01960153600492608,"223":0.005467481640134345,"224":0.0074061886180023856,"225":-0.10101423048243062,"226":0.015737043089109424,"227":-0.030384580477484983,"228":0.029251920681848495,"229":0.032414619504519654,"230":-0.08989026832468046,"231":-0.018863169671575537,"232":-0.0006373088936756867,"233":-0.024722211103409848,"234":-0.08737379274128104,"235":-0.05764511415610165,"236":0.03415910749139555,"237":-0.013996747728077774,"238":-0.0072054307157478495,"239":-0.05367163736978602,"240":-0.06584411061419594,"241":0.016278463460481025,"242":-0.028364107293265422,"243":-0.08161543043917747,"244":-0.023746676563259742,"245":-0.071653811136292,"246":-0.04512656586646185,"247":-0.03705960919512406,"248":0.01692249464695138,"249":-0.07313703147157857,"250":0.003242126132668588,"251":-0.0668770742747533,"252":0.0378518083459124,"253":-0.056507439731453744,"254":-0.048090062333918084,"255":-0.0584803420964147,"256":-0.021586045063452526,"257":-0.03589480427192282,"258":-0.014000118313163635,"259":-0.004890111129333704,"260":-0.0801719680235879,"261":-0.023468857658735905,"262":0.011640328054928694,"263":0.01933973516839284,"264":-0.02893714786312494,"265":-0.01014969991164994,"266":-0.00893390951629781,"267":-0.09494335288616033,"268":-0.03602210432540115,"269":0.10615034927158566,"270":0.030452999427820576,"271":0.05301901629868987,"272":-0.03620542631853371,"273":-0.01802015294043755,"274":0.06752863197785045,"275":-0.03956794167508305,"276":-0.010153285314133242,"277":0.006788280297621747,"278":-0.07894819488172716,"279":0.041951883863137855,"280":-0.0261846835347545,"281":-0.050264792001098645,"282":-0.10185605616140615,"283":0.022181704523291743,"284":0.006474888791274271,"285":-0.05010638989318594,"286":-0.05393808493328437,"287":0.040419201346998335,"288":0.032459968036257135,"289":-0.049034260046189625,"290":-0.044778315849248955,"291":-0.10237956193057289,"292":0.05620675060837673,"293":-0.00770595540530316,"294":0.08656340580116396,"295":-0.026476040586936384,"296":-0.07128213170112824,"297":-0.03698062062091665,"298":-0.06309893353497277,"299":0.021372800354008334,"300":-0.033407487714734195,"301":0.04218372061269067,"302":-0.009047214911168786,"303":-0.03904886327626482,"304":0.010588661123497035,"305":0.04114407438926453,"306":-0.05894690202785551,"307":-0.02198638920882327,"308":-0.05029037759019584,"309":-0.05183030990862705,"310":-0.020436006369142914,"311":-0.02476977283605657,"312":-0.006323433687602567,"313":-0.005450228766341252,"314":0.044200193429577206,"315":0.03275736507253022,"316":-0.009492399593586429,"317":0.0009193855049192375,"318":0.048586733910416145,"319":-0.021507553623308043,"320":-0.05622225758246471,"321":0.00552269040381786,"322":0.032410827306852845,"323":-0.009451212481077819,"324":-0.04829763943988045,"325":-0.030030158892495253,"326":-0.04596570688038855,"327":0.00462399359045907,"328":-0.02744339761717985,"329":-0.024011802614756054,"330":0.06761638883616142,"331":0.021210645712191153,"332":0.02166625192942887,"333":-0.043870396257516556,"334":-0.05041341964435872,"335":0.05994337042990985,"336":-0.00917999168009122,"337":-0.03038506840307163,"338":-0.0749548819098508,"339":-0.01978146802637232,"340":0.07777641876828062,"341":0.048099395064903246,"342":0.04393613009430242,"343":-0.05987130033791954,"344":-0.01876942625829815,"345":-0.06834435699212466,"346":0.006926811941517567,"347":-0.08807200119140496,"348":-0.00027642486213576577,"349":-0.022771846543632523,"350":-0.09386128343370605,"351":0.07731639833954577,"352":-0.029822663222814672,"353":0.07866324477677557,"354":-0.026458755784770333,"355":-0.021357444308261635,"356":-0.04495911488538777,"357":-0.02035939505657947,"358":-0.009383271587759643,"359":-0.04541232553611966,"360":-0.031251449631253404,"361":0.038230223876831226,"362":-0.045077796457824754,"363":-0.012171725392426952,"364":-0.09360411841888092,"365":0.0058664742730496966,"366":-0.03523202375038402,"367":0.005515855421988426,"368":-0.07699698929580531,"369":0.008463351207576715,"370":0.04558690255783853,"371":-0.04544947563069903,"372":-0.03772223315560897,"373":-0.0536492489244613,"374":-0.07205544236969694,"375":0.006341633213212985,"376":-0.0022548526355892005,"377":0.06979944136837836,"378":-0.042005811692207226,"379":-0.000516951236190414,"380":0.06329522029338681,"381":0.06865889886033129,"382":-0.025896193733471524,"383":-0.010090796064054509,"384":0.024193217566913065,"385":-0.01199296737495689,"386":-0.02590208202191956,"387":-0.03502416306803083,"388":0.05561006232094953,"389":-0.016380346650398923,"390":-0.10387500725982936,"391":0.008117721683563065,"392":0.006461198644597516,"393":-0.05747801257855428,"394":0.0721467015105884,"395":0.0009086188304838289,"396":0.001846817134907133,"397":0.032098926352233534,"398":-0.002415967830568892,"399":-0.02204798553654147,"400":-0.026982457340737575,"401":-0.003356165583734535,"402":-0.08037052634489411,"403":0.01675016056914145,"404":-0.02279703877355602,"405":-0.04290293464854789,"406":-0.05180655204993271,"407":-0.007820513783321376,"408":0.00234419991635176,"409":-0.06314149523344348,"410":-0.035754058366841306,"411":0.0578888336011091,"412":-0.08966940346310057,"413":-0.03809538100078969,"414":0.002806378857621801,"415":0.015138544429229095,"416":0.04444414408865964,"417":-0.05038045878864526,"418":-0.03297239653955945,"419":-0.007889938158732058,"420":-0.028763460760687788,"421":-0.03959509085768025,"422":0.06745876475457628,"423":0.03295544055031035,"424":0.022099717286365277,"425":-0.05608566829264887,"426":-0.09321249208958735,"427":-0.16644870997679206,"428":-0.045816881642058827,"429":-0.03446481773266555,"430":-0.04341662884539344,"431":0.02788680657041046,"432":-0.05156761449920348,"433":-0.024676967144965825,"434":0.030153348810338813,"435":0.01091626614487855,"436":0.018141176338727947,"437":-0.012107234949574277,"438":-0.029716329351315084,"439":-0.045254997594952114,"440":-0.08429932735969507,"441":0.03644152015415114,"442":0.0169484807544551,"443":-0.056927640943991456,"444":0.029207465006042665,"445":0.04016585159309406,"446":-0.07210755837255411,"447":-0.025618088441837238,"448":0.0031029298553094556,"449":-0.024263257718438503}},{"sx":5,"sy":5,"depth":18,"w":{"0":0.03510940943209759,"1":0.12277302239642245,"2":-0.006387473900358523,"3":0.042914885075593864,"4":-0.06023844740472999,"5":-0.012318462887467388,"6":-0.0070648011359264575,"7":0.05620722678022635,"8":-0.01658412754516532,"9":-0.058452948982390056,"10":-0.017547922484276054,"11":-0.12418341358261825,"12":0.052455725715536146,"13":-0.01941630972995127,"14":-0.024050439944907704,"15":-0.0654080982797486,"16":0.0663292928094347,"17":-0.08626118540661594,"18":0.009685944604493036,"19":-0.02468302133524095,"20":-0.016660930851144833,"21":0.10421352404014202,"22":0.02232008435792165,"23":0.05097548574829244,"24":-0.014920527649212683,"25":-0.03533165337584798,"26":-0.08101647783059039,"27":-0.023255354960217037,"28":0.02949682764775775,"29":-0.0337108115413932,"30":0.0478987758087906,"31":0.0409815396359356,"32":0.008220645343108877,"33":-0.10703605318434746,"34":-0.042111418293338546,"35":0.047288427413156524,"36":-0.014409683629355987,"37":-0.11566032078801664,"38":0.015122729831000489,"39":0.009179632510114121,"40":-0.011202174552432716,"41":-0.02769861489467304,"42":-0.017869952775190805,"43":0.03514235110864988,"44":-0.07164012183173248,"45":0.0061730947990218344,"46":-0.04206967867852213,"47":-0.1085538221076188,"48":0.01467361979014267,"49":-0.026792238155496334,"50":0.011395167792574403,"51":-0.030887676882675845,"52":-0.05727415473674822,"53":0.012444542248715117,"54":-0.04065503416722598,"55":-0.0008258652337062246,"56":0.006964775419096621,"57":-0.03954407266232138,"58":-0.08946294100732045,"59":-0.017206220983718094,"60":0.006365318200999857,"61":-0.03767040065659248,"62":0.011350555489503616,"63":0.015359683209218286,"64":-0.03753119430845053,"65":-0.04390513074775132,"66":0.13642149119760122,"67":0.00956901473833625,"68":0.028265067864896062,"69":0.06810521510470578,"70":0.00723801401272358,"71":0.03273591475315799,"72":-0.04884771120881926,"73":-0.02493204273059255,"74":-0.0371099957162914,"75":-0.058450236889920786,"76":0.003142553720966912,"77":-0.03139922533999689,"78":-0.007479634527921548,"79":0.000892036560570486,"80":0.10113480207434071,"81":-0.009298441872539264,"82":-0.05189264353285704,"83":-0.0024536988838779377,"84":-0.011947955841115155,"85":-0.068858862317685,"86":-0.00971103316972714,"87":-0.006175489780134201,"88":0.01271254352428169,"89":-0.05422590489517202,"90":-0.0336600061505998,"91":-0.013297783001295912,"92":-0.0022476279486056626,"93":-0.023508224618821273,"94":-0.004554270994168342,"95":0.04831485671239497,"96":-0.01682436279819919,"97":0.03551684615006535,"98":-0.06593888970291016,"99":-0.02668250399321291,"100":0.002106174172923946,"101":-0.043281330210122114,"102":-0.0349366156715309,"103":0.008200015635890557,"104":0.048063574005994425,"105":-0.06367309587963156,"106":0.008326266569774839,"107":-0.07578169135406389,"108":-0.011586828520049807,"109":-0.012543513545171367,"110":-0.039454244881020756,"111":-0.021569146343550623,"112":-0.05806211871933364,"113":0.005453503443469079,"114":-0.06231246447718756,"115":-0.07152919922635177,"116":0.019241335749194958,"117":-0.00544447161607274,"118":0.034016938021547004,"119":0.012533813625489271,"120":-0.09714378508876892,"121":-0.039461827834152176,"122":-0.055601328123535035,"123":0.027440562707760165,"124":0.023731773423938063,"125":-0.028399005885712855,"126":-0.0220776548210114,"127":-0.04891595169078904,"128":-0.009036724501771723,"129":-0.006614223291623045,"130":-0.0061791174021434535,"131":-0.023226857529895364,"132":-0.046566904078881435,"133":0.05691388438670503,"134":0.030996361602019566,"135":-0.0036523257705563263,"136":-0.047993715854808335,"137":0.00010591442953272238,"138":0.015135983111730424,"139":-0.04686314285311033,"140":-0.019026906994313558,"141":-0.0167305575167031,"142":0.06345471243695354,"143":0.05192621167241873,"144":-0.027361137845431063,"145":-0.02749701596633255,"146":0.044792813171098546,"147":-0.07640475526680546,"148":0.001855846911980189,"149":-0.038736099655723846,"150":-0.06758267746407985,"151":-0.038163824092805526,"152":0.020743514164424354,"153":-0.020590497831869198,"154":-0.02212282992748159,"155":0.014687792694861954,"156":-0.011308256174642315,"157":-0.03180917597749349,"158":0.03128819932377409,"159":0.013422609065233217,"160":0.033561183203042536,"161":-0.016680482928925707,"162":0.015276593709127767,"163":0.10007535696239714,"164":-0.01717388159489792,"165":-0.02423625536157298,"166":0.07233563517691562,"167":-0.041974310392218196,"168":-0.0904329686113815,"169":-0.025772913938054864,"170":-0.08096792368962212,"171":0.02759943377426099,"172":0.031780519507664404,"173":-0.053385865584709896,"174":0.02264137687243387,"175":-0.02618422347860639,"176":0.018631134085855348,"177":0.008946096985221474,"178":0.04553500960478445,"179":0.0395803571641466,"180":-0.051572721405219894,"181":-0.10739453881098471,"182":-0.04773844512084537,"183":-0.031151699184364206,"184":0.001824337179553041,"185":-0.0291608418421641,"186":-0.027439710171203356,"187":-0.07778392215914402,"188":-0.023575603845862263,"189":-0.028936630484953242,"190":0.058180006496476144,"191":-0.008438578026961375,"192":-0.020839467265114518,"193":-0.021502385096775132,"194":-0.041423230145764094,"195":-0.049067319932081466,"196":0.02223330789285582,"197":-0.043987844970610625,"198":0.0017724520108250714,"199":-0.07795868714136549,"200":-0.042045046392215006,"201":0.013038991491165214,"202":0.09225847823391328,"203":-0.026951333137706122,"204":-0.10572639757055724,"205":-0.03495277083011992,"206":0.010577813846054487,"207":0.004142702319006299,"208":-0.084317156897899,"209":-0.01869539554134782,"210":0.019864973592944375,"211":-0.0064001662524445346,"212":-0.0010876707133686747,"213":-0.06613006736977646,"214":-0.017925911929354967,"215":0.07484171424401508,"216":-0.04238863506552738,"217":-0.028246304647190343,"218":-0.02472815451128332,"219":0.008324013905619905,"220":-0.04385937373897602,"221":-0.13639063883005703,"222":-0.059474814803347736,"223":-0.03434098963517612,"224":-0.01668368215798151,"225":-0.07529396002643265,"226":-0.03987500812593026,"227":-0.00842138774121934,"228":-0.06251924873737195,"229":-0.04387892469839086,"230":-0.05844570032153066,"231":-0.06781589697257545,"232":0.023223700618215944,"233":-0.050498323095067084,"234":0.05577991220861282,"235":0.05152647943236539,"236":-0.03303976418321964,"237":-0.015601526200892942,"238":-0.03584165858944552,"239":-0.0063713491177245325,"240":-0.03540719946437162,"241":-0.05999199394036305,"242":0.04420856931413127,"243":0.10679031531442482,"244":-0.07497913243157987,"245":0.004370916920905534,"246":-0.006486703294234669,"247":-0.03618419225937887,"248":-0.03956699769712353,"249":-0.050239222250209416,"250":0.05610184678561459,"251":-0.05198868006063337,"252":-0.002017559874550385,"253":-0.07022712455221579,"254":-0.04026909211605505,"255":-0.043645612205076095,"256":-0.003309555909724045,"257":-0.0009377323272187408,"258":-0.06492837682253932,"259":-0.05393614968715031,"260":-0.007294316643667352,"261":0.023860457215196633,"262":-0.09330987455260308,"263":0.02422169691170123,"264":-0.02814253367618571,"265":0.015146583930005541,"266":-0.04699765172263226,"267":-0.09202398117000644,"268":-0.0472027499575246,"269":0.03314513946308539,"270":-0.06563774047779791,"271":0.03802401731561057,"272":-0.09317551856573864,"273":-0.0266566105036605,"274":0.009670959211387624,"275":-0.032316049567647345,"276":-0.044138496377458876,"277":-0.002074528563676589,"278":-0.05628573856794215,"279":0.03018796717583172,"280":0.01568295629938331,"281":0.006584368324630053,"282":0.07070560922622576,"283":0.021097624052938156,"284":0.02257521371018757,"285":-0.018205529910501988,"286":0.016928495115547004,"287":0.029388175817067295,"288":0.00720963822789433,"289":-0.008793013131525581,"290":-0.05964436678228425,"291":-0.010022724247709882,"292":0.02198755828278237,"293":-0.0718271302267742,"294":-0.04503864125840271,"295":0.041723159631453545,"296":0.030474911588494077,"297":-0.060492442224807354,"298":-0.02665551650582915,"299":-0.09768282380835148,"300":-0.07636004885921777,"301":0.038200554454859786,"302":0.0032390596576606216,"303":0.03760057880833219,"304":-0.014891170951004439,"305":-0.0012155083384293602,"306":-0.04022831567857562,"307":-0.01785809536533799,"308":-0.006441306914412387,"309":-0.019820952983250994,"310":-0.052250494888504355,"311":0.08067444269448089,"312":-0.04776735026277914,"313":-0.013606388510583968,"314":-0.030101060084994195,"315":0.009828866852578562,"316":0.05235897624502103,"317":0.01453269448715686,"318":-0.020539602742481896,"319":-0.008036917852965147,"320":-0.033220415655675,"321":0.009012858502544227,"322":-0.000014482979366549104,"323":0.037676388767173996,"324":0.004790076863948771,"325":-0.050621886774963286,"326":0.017620275269672924,"327":-0.021028904354615706,"328":-0.030037942631970245,"329":-0.020518599347303323,"330":-0.026353806745785847,"331":-0.023708187145680702,"332":0.006145221624807759,"333":0.057022405940277375,"334":0.03906299753790103,"335":0.02599849382558049,"336":0.0015301217736691112,"337":0.11359620018137222,"338":0.008931189664966309,"339":-0.017210372538377518,"340":-0.11299514950739496,"341":-0.033558098783623425,"342":-0.07783242995377763,"343":-0.03715118927049275,"344":-0.03711832884615734,"345":-0.009697624678895189,"346":-0.10802791647338177,"347":0.013809660920508832,"348":-0.004981856464354137,"349":-0.044356211097627746,"350":0.06560927438378317,"351":-0.030411230089069197,"352":0.031029720838661665,"353":-0.07754055232498856,"354":-0.03775090622580863,"355":0.06926314901453902,"356":0.04357449518554589,"357":0.016078739108263122,"358":-0.03988036310006815,"359":0.0026066724413173646,"360":0.0016027375371423145,"361":0.20444541795118373,"362":-0.010769727141759089,"363":-0.04313629243917865,"364":0.0019596503036314428,"365":-0.030900141148663754,"366":-0.024788241939684076,"367":-0.05045763331158867,"368":-0.014370360010173803,"369":0.06728848632133552,"370":0.13715632544155093,"371":-0.026515911093363445,"372":-0.10481767272531778,"373":0.06960371153195073,"374":0.04048058035872968,"375":0.013089788583796601,"376":-0.09991959880684424,"377":-0.041895110100498914,"378":0.005958398170902703,"379":0.10092314122575642,"380":0.031382715683492726,"381":-0.06510212671988963,"382":-0.04643418088897187,"383":-0.08875404866379417,"384":0.028370563936575457,"385":0.05562194157864449,"386":-0.019823485950919952,"387":0.048649611815840765,"388":0.09106326300286528,"389":0.03967578201726458,"390":-0.03563501860193886,"391":-0.004914654927623311,"392":0.03371660203745764,"393":0.020392359684103405,"394":0.02639148009979498,"395":-0.034381273338250855,"396":0.04710016966613026,"397":0.01907046279164358,"398":-0.048367834783428855,"399":0.05348868557093364,"400":0.03038029377355968,"401":0.04082332748206415,"402":0.05353452870060551,"403":-0.02103438506018472,"404":-0.06686690123192286,"405":0.07820812124061731,"406":0.0793710096294289,"407":0.013040126537857528,"408":0.05891425245187473,"409":-0.06058709899153048,"410":-0.008077084057344454,"411":-0.0489208790971636,"412":-0.04827037689601873,"413":-0.004219914096940155,"414":-0.018364923982429688,"415":0.07203605875127608,"416":0.06345909133762273,"417":-0.03665354485984906,"418":-0.01002357250972496,"419":-0.02893016455074606,"420":0.016497481881626336,"421":0.016457094606240372,"422":-0.021548041468218787,"423":0.04660735033292247,"424":0.035012139712975766,"425":-0.027069132637732904,"426":-0.036887344724704715,"427":0.0648085573040265,"428":0.01783985282074666,"429":-0.06073618131927141,"430":-0.008687882429555099,"431":0.01878391095791117,"432":0.036036909246519234,"433":0.02222856662149092,"434":0.03432261803058503,"435":-0.08992682807079218,"436":-0.03026605825981271,"437":-0.008587844992240667,"438":-0.03119661622036933,"439":-0.05452031658521965,"440":-0.01719286396631361,"441":-0.021044176644594695,"442":0.18497620067421192,"443":0.10633884929261915,"444":-0.019347142732941247,"445":-0.008786032567602792,"446":-0.05114990727283908,"447":0.05694574392320768,"448":-0.09437131960451067,"449":-0.07387947587809697}},{"sx":5,"sy":5,"depth":18,"w":{"0":-0.08799447043458683,"1":-0.005996580968440292,"2":-0.013059924869265023,"3":-0.12092202865749316,"4":0.06899244394813,"5":0.02043963527096109,"6":-0.032832680625119987,"7":-0.07059419115599948,"8":-0.04952141555771457,"9":0.0008233294291477399,"10":0.06246235444197951,"11":-0.05063174238352822,"12":-0.032530040963744546,"13":-0.00029161116289414684,"14":-0.05306723467084702,"15":-0.09807881010520812,"16":0.00013291196936971044,"17":-0.05670007921569048,"18":-0.0536047127280198,"19":-0.011147049319276665,"20":-0.12747411135446954,"21":0.020871452776155066,"22":-0.02086148276490047,"23":-0.018097145907029478,"24":0.0700527518634785,"25":0.054337062258435924,"26":-0.02993823236160897,"27":0.005406583868055099,"28":0.0034286380808468938,"29":-0.015113008638360024,"30":-0.004818414210218318,"31":-0.03959406626519897,"32":-0.032501686753137624,"33":-0.029825153130785535,"34":-0.00204862490162648,"35":-0.0407428440779198,"36":-0.010750732012544716,"37":0.08785690089814736,"38":0.032093619840774974,"39":-0.13218364726513074,"40":0.050454760395132935,"41":0.02876811081495423,"42":-0.006744585646545578,"43":-0.1393005227584295,"44":0.05392519218335421,"45":-0.030181028061856338,"46":0.08883776353450194,"47":-0.045762671474527464,"48":-0.02886434676818278,"49":0.08869062124946096,"50":0.0072530310571802745,"51":-0.05053800115216991,"52":-0.0347895233647382,"53":-0.06323042715380069,"54":-0.058264450202230096,"55":0.06410665743285553,"56":-0.028215329870816437,"57":-0.02914612246052231,"58":0.009186677941621157,"59":0.07607199969990773,"60":-0.048699440359434784,"61":0.043044813799062304,"62":0.08236832610747237,"63":0.023279289549506605,"64":0.06339105125784276,"65":-0.02244520458942785,"66":-0.013356391522239946,"67":-0.0032461552575267843,"68":-0.016262758931510714,"69":-0.053647248620342196,"70":-0.007177450022073867,"71":-0.020523626676012995,"72":0.0052388903429174925,"73":0.06707862000425732,"74":0.005293000340098093,"75":0.06107930527141222,"76":-0.02228738340161224,"77":-0.062088747031184374,"78":-0.051955799742074225,"79":-0.03143395037260077,"80":0.05470004596666221,"81":-0.08750484173026643,"82":0.061784589099623595,"83":-0.05095828217398996,"84":-0.07459465381001533,"85":0.060373761942959674,"86":-0.10847923879062296,"87":0.04805219247665513,"88":-0.09745548281159494,"89":0.007171682500035415,"90":0.09092930821673235,"91":-0.0416406431261732,"92":-0.022063080699343287,"93":-0.07702247695157093,"94":-0.11072804661463326,"95":0.011452240289283802,"96":-0.06190928748592073,"97":-0.02478388845266601,"98":-0.019865061067246118,"99":0.019218640823730846,"100":0.08075160297645366,"101":-0.0013433278386076714,"102":-0.002282816922074324,"103":0.018950907918753566,"104":-0.014718780881829666,"105":-0.05782127540044403,"106":-0.04605708790941823,"107":-0.021083568303058662,"108":0.024240446205834754,"109":-0.002344268216064164,"110":0.021389042757464848,"111":0.016565582362560546,"112":-0.08727711727415234,"113":-0.03297577297601201,"114":-0.03720409960128014,"115":0.009274956631990303,"116":-0.014353182277052283,"117":-0.05247896865698219,"118":0.056224196918335315,"119":-0.019063524934583843,"120":-0.046133433157787035,"121":0.03431308249648259,"122":-0.055759185039669604,"123":0.09014864396835143,"124":-0.020242356402113325,"125":-0.06596838335194402,"126":-0.07388485076226818,"127":0.018341200923222226,"128":-0.031415121351435045,